{"learner":{"attributes":{"scikit_learn":"{\"_estimator_type\": \"regressor\"}"},"feature_names":[],"feature_types":[],"gradient_booster":{"model":{"cats":{"enc":[],"feature_segments":[],"sorted_idx":[]},"gbtree_model_param":{"num_parallel_tree":"1","num_trees":"200"},"iteration_indptr":[0,1,2,3,4,5,6,7,8,9,10,11,12,13,14,15,16,17,18,19,20,21,22,23,24,25,26,27,28,29,30,31,32,33,34,35,36,37,38,39,40,41,42,43,44,45,46,47,48,49,50,51,52,53,54,55,56,57,58,59,60,61,62,63,64,65,66,67,68,69,70,71,72,73,74,75,76,77,78,79,80,81,82,83,84,85,86,87,88,89,90,91,92,93,94,95,96,97,98,99,100,101,102,103,104,105,106,107,108,109,110,111,112,113,114,115,116,117,118,119,120,121,122,123,124,125,126,127,128,129,130,131,132,133,134,135,136,137,138,139,140,141,142,143,144,145,146,147,148,149,150,151,152,153,154,155,156,157,158,159,160,161,162,163,164,165,166,167,168,169,170,171,172,173,174,175,176,177,178,179,180,181,182,183,184,185,186,187,188,189,190,191,192,193,194,195,196,197,198,199,200],"tree_info":[0,0,0,0,0,0,0,0,0,0,0,0,0,0,0,0,0,0,0,0,0,0,0,0,0,0,0,0,0,0,0,0,0,0,0,0,0,0,0,0,0,0,0,0,0,0,0,0,0,0,0,0,0,0,0,0,0,0,0,0,0,0,0,0,0,0,0,0,0,0,0,0,0,0,0,0,0,0,0,0,0,0,0,0,0,0,0,0,0,0,0,0,0,0,0,0,0,0,0,0,0,0,0,0,0,0,0,0,0,0,0,0,0,0,0,0,0,0,0,0,0,0,0,0,0,0,0,0,0,0,0,0,0,0,0,0,0,0,0,0,0,0,0,0,0,0,0,0,0,0,0,0,0,0,0,0,0,0,0,0,0,0,0,0,0,0,0,0,0,0,0,0,0,0,0,0,0,0,0,0,0,0,0,0,0,0,0,0,0,0,0,0,0,0,0,0,0,0,0,0],"trees":[{"base_weights":[-3.489605E-4,-3.0744228E-1,4.0829852E-1,-5.3079057E-1,-1.3505703E-1,2.4283627E-1,7.068529E-1,-6.197221E-1,-4.2344144E-1,-2.5179836E-1,-5.187459E-2,1.5317644E-1,3.5849828E-1,5.796089E-1,8.489026E-1,-6.5003015E-2,-5.606219E-1,-5.0040346E-1,-3.9679557E-1,-2.8703865E-1,-2.0803563E-1,-9.97373E-2,-4.7147186E-3,1.0280794E-1,2.0471592E-1,3.1809837E-1,4.1950382E-2,5.0453182E-2,6.27171E-2,7.924428E-2,9.79925E-2,-6.375757E-2,-5.22737E-2,-5.366988E-2,-4.416038E-2,-4.4658042E-2,-3.6030225E-2,-3.540073E-2,-2.7024046E-1,-1.9755185E-1,-2.9332995E-2,-1.2185484E-1,-7.0016906E-2,6.3889944E-3,-7.728695E-2,1.1118821E-1,3.0942738E-2,2.1012552E-1,9.0541676E-2,3.3063656E-1,2.5325743E-2,-2.6302794E-2,-3.417185E-2,-2.2931812E-2,-1.8123297E-2,-1.1374439E-2,-1.9474247E-2,-6.0942285E-3,-1.4006713E-2,-1.1586711E-3,3.4912531E-3,-6.2376186E-3,-1.4521244E-2,8.644929E-3,1.3498547E-2,3.754322E-3,-2.7698493E-3,1.7824778E-2,2.3172623E-2,1.471326E-3,1.0101947E-2,3.0087888E-2,3.5499606E-2],"categories":[],"categories_nodes":[],"categories_segments":[],"categories_sizes":[],"default_left":[0,0,0,0,0,0,0,0,0,0,0,0,0,0,0,0,0,0,0,0,0,0,0,0,0,0,0,0,0,0,0,0,0,0,0,0,0,0,0,0,0,0,0,0,0,0,0,0,0,0,0,0,0,0,0,0,0,0,0,0,0,0,0,0,0,0,0,0,0,0,0,0,0],"id":0,"left_children":[1,3,5,7,9,11,13,15,17,19,21,23,25,27,29,-1,31,33,35,37,39,41,43,45,47,49,-1,-1,-1,-1,-1,-1,-1,-1,-1,-1,-1,-1,51,53,-1,55,57,59,61,63,65,67,69,71,-1,-1,-1,-1,-1,-1,-1,-1,-1,-1,-1,-1,-1,-1,-1,-1,-1,-1,-1,-1,-1,-1,-1],"loss_changes":[7.0111884E2,1.2268295E2,1.1814398E2,1.2893677E1,1.7455482E1,1.5905563E1,1.4801117E1,8.704529E-1,1.0098267E0,1.0458946E0,2.368173E0,2.2118855E0,1.4514847E0,1.1915588E0,2.0126343E0,0E0,3.2326508E-1,2.357483E-3,6.232071E-1,3.0426407E-1,1.9610119E-1,3.1541348E-1,4.370863E-1,2.4974489E-1,2.1587372E-1,1.9120026E-1,0E0,0E0,0E0,0E0,0E0,0E0,0E0,0E0,0E0,0E0,0E0,0E0,2.183342E-2,7.601261E-2,0E0,1.21981144E-1,1.1566222E-1,2.3961866E-1,4.3106437E-2,1.9931984E-1,2.0990323E-2,1.9863892E-1,4.419744E-3,7.3337555E-2,0E0,0E0,0E0,0E0,0E0,0E0,0E0,0E0,0E0,0E0,0E0,0E0,0E0,0E0,0E0,0E0,0E0,0E0,0E0,0E0,0E0,0E0,0E0],"parents":[2147483647,0,0,1,1,2,2,3,3,4,4,5,5,6,6,7,7,8,8,9,9,10,10,11,11,12,12,13,13,14,14,16,16,17,17,18,18,19,19,20,20,21,21,22,22,23,23,24,24,25,25,38,38,39,39,41,41,42,42,43,43,44,44,45,45,46,46,47,47,48,48,49,49],"right_children":[2,4,6,8,10,12,14,16,18,20,22,24,26,28,30,-1,32,34,36,38,40,42,44,46,48,50,-1,-1,-1,-1,-1,-1,-1,-1,-1,-1,-1,-1,52,54,-1,56,58,60,62,64,66,68,70,72,-1,-1,-1,-1,-1,-1,-1,-1,-1,-1,-1,-1,-1,-1,-1,-1,-1,-1,-1,-1,-1,-1,-1],"split_conditions":[1.46E1,6.5E0,2.4E1,2.5E0,1.01E1,1.92E1,2.91E1,8E-1,-1.2424006E0,8.5E0,1.23E1,1.69E1,2.18E1,2.57E1,3.33E1,-6.5003015E-2,-1.4113234E0,2.8215013E0,4.3E0,-1.184093E0,4.888889E0,1.14E1,5.4722223E0,5.4722223E0,7.6944447E0,4.888889E0,4.1950382E-2,5.0453182E-2,6.27171E-2,7.924428E-2,9.79925E-2,-6.375757E-2,-5.22737E-2,-5.366988E-2,-4.416038E-2,-4.4658042E-2,-3.6030225E-2,-3.540073E-2,4.388889E0,-5.810192E-1,-2.9332995E-2,5.4722223E0,4.888889E0,1.36E1,1.0305555E1,1.57E1,8.501E1,1.78E1,2.3333333E0,2.04E1,2.5325743E-2,-2.6302794E-2,-3.417185E-2,-2.2931812E-2,-1.8123297E-2,-1.1374439E-2,-1.9474247E-2,-6.0942285E-3,-1.4006713E-2,-1.1586711E-3,3.4912531E-3,-6.2376186E-3,-1.4521244E-2,8.644929E-3,1.3498547E-2,3.754322E-3,-2.7698493E-3,1.7824778E-2,2.3172623E-2,1.471326E-3,1.0101947E-2,3.0087888E-2,3.5499606E-2],"split_indices":[0,0,0,0,0,0,0,0,14,0,0,0,0,0,0,0,14,13,0,14,3,0,3,3,3,3,0,0,0,0,0,0,0,0,0,0,0,0,3,14,0,3,3,0,3,0,1,0,2,0,0,0,0,0,0,0,0,0,0,0,0,0,0,0,0,0,0,0,0,0,0,0,0],"split_type":[0,0,0,0,0,0,0,0,0,0,0,0,0,0,0,0,0,0,0,0,0,0,0,0,0,0,0,0,0,0,0,0,0,0,0,0,0,0,0,0,0,0,0,0,0,0,0,0,0,0,0,0,0,0,0,0,0,0,0,0,0,0,0,0,0,0,0,0,0,0,0,0,0],"sum_hessian":[5.585E3,3.189E3,2.396E3,1.388E3,1.801E3,1.543E3,8.53E2,7.56E2,6.32E2,7.48E2,1.053E3,8.71E2,6.72E2,4.53E2,4E2,4.92E2,2.64E2,1.57E2,4.75E2,4.1E2,3.38E2,5.21E2,5.32E2,4.43E2,4.28E2,4.09E2,2.63E2,1.81E2,2.72E2,2.85E2,1.15E2,8.1E1,1.83E2,9.1E1,6.6E1,1.95E2,2.8E2,7.7E1,3.33E2,3.05E2,3.3E1,2.95E2,2.26E2,4.61E2,7.1E1,3.95E2,4.8E1,4.07E2,2.1E1,3.38E2,7.1E1,3.08E2,2.5E1,9.7E1,2.08E2,2.69E2,2.6E1,2.03E2,2.3E1,2.81E2,1.8E2,6.1E1,1E1,1.98E2,1.97E2,4.5E1,3E0,1.7E2,2.37E2,4E0,1.7E1,1.6E2,1.78E2],"tree_param":{"num_deleted":"0","num_feature":"17","num_nodes":"73","size_leaf_vector":"1"}},{"base_weights":[2.5262163E-4,-2.7182484E-1,3.741136E-1,-4.7398973E-1,-1.13877125E-1,2.2465782E-1,6.4190227E-1,-5.551555E-1,-3.7605646E-1,-2.2418298E-1,-4.367056E-2,1.4217713E-1,3.2606828E-1,5.411048E-1,7.7950925E-1,-5.8565926E-2,-5.0500846E-1,-4.1614994E-1,-3.3190608E-1,-2.494512E-1,-1.8230185E-1,-8.412931E-2,3.4221557E-3,9.025388E-2,1.801613E-1,2.8037682E-1,3.7842733E-1,4.8950206E-2,6.0021203E-2,7.167951E-2,8.733407E-2,-4.732305E-2,-5.7025965E-2,-3.9210998E-2,-4.7006134E-2,-3.0665709E-2,-3.792223E-2,-2.2706017E-1,-2.8943002E-1,-1.7069316E-1,-2.5317514E-2,-1.1106733E-1,-6.0207415E-2,1.4333051E-2,-6.0590666E-2,9.8257385E-2,2.7012954E-2,1.60631E-1,2.1522921E-1,2.9072154E-1,2.1834962E-2,3.8686838E-2,2.8908944E-2,-2.4914112E-2,-2.0572312E-2,-2.7640564E-2,-3.8329225E-2,-1.5465637E-2,-1.9706234E-2,-9.98705E-3,-1.5323855E-2,-5.242528E-3,-1.2859315E-2,-3.090929E-4,3.7648205E-3,-9.021769E-3,-3.9523696E-3,7.979791E-3,1.1674821E-2,-0E0,3.1073708E-3,1.7323388E-2,9.857171E-3,2.1828374E-2,5.1995334E-3,2.6411721E-2,3.103735E-2],"categories":[],"categories_nodes":[],"categories_segments":[],"categories_sizes":[],"default_left":[0,0,0,0,0,0,0,0,0,0,0,0,0,0,0,0,0,0,0,0,0,0,0,0,0,0,0,0,0,0,0,0,0,0,0,0,0,0,0,0,0,0,0,0,0,0,0,0,0,0,0,0,0,0,0,0,0,0,0,0,0,0,0,0,0,0,0,0,0,0,0,0,0,0,0,0,0],"id":1,"left_children":[1,3,5,7,9,11,13,15,17,19,21,23,25,27,29,-1,31,33,35,37,39,41,43,45,47,49,51,-1,-1,-1,-1,-1,-1,-1,-1,-1,-1,53,55,57,-1,59,61,63,65,67,69,71,73,75,-1,-1,-1,-1,-1,-1,-1,-1,-1,-1,-1,-1,-1,-1,-1,-1,-1,-1,-1,-1,-1,-1,-1,-1,-1,-1,-1],"loss_changes":[5.7085803E2,1.0360066E2,9.438251E1,1.1017242E1,1.4096577E1,1.261235E1,1.1180511E1,7.8222656E-1,9.358902E-1,6.6165924E-1,2.1365926E0,1.6133976E0,1.4548264E0,1.0978851E0,1.3039856E0,0E0,2.519989E-1,1.6363907E-1,1.9144821E-1,2.7471542E-1,1.381855E-1,3.6411953E-1,3.5663626E-1,1.6601992E-1,2.5864124E-1,1.2174034E-1,5.6598663E-2,0E0,0E0,0E0,0E0,0E0,0E0,0E0,0E0,0E0,0E0,3.8477898E-2,1.3905525E-2,3.4995556E-2,0E0,9.159684E-2,1.47053E-1,1.8353766E-1,2.964735E-2,7.888937E-2,7.245932E-3,2.0289516E-1,4.5387268E-2,2.3176193E-2,0E0,0E0,0E0,0E0,0E0,0E0,0E0,0E0,0E0,0E0,0E0,0E0,0E0,0E0,0E0,0E0,0E0,0E0,0E0,0E0,0E0,0E0,0E0,0E0,0E0,0E0,0E0],"parents":[2147483647,0,0,1,1,2,2,3,3,4,4,5,5,6,6,7,7,8,8,9,9,10,10,11,11,12,12,13,13,14,14,16,16,17,17,18,18,19,19,20,20,21,21,22,22,23,23,24,24,25,25,26,26,37,37,38,38,39,39,41,41,42,42,43,43,44,44,45,45,46,46,47,47,48,48,49,49],"right_children":[2,4,6,8,10,12,14,16,18,20,22,24,26,28,30,-1,32,34,36,38,40,42,44,46,48,50,52,-1,-1,-1,-1,-1,-1,-1,-1,-1,-1,54,56,58,-1,60,62,64,66,68,70,72,74,76,-1,-1,-1,-1,-1,-1,-1,-1,-1,-1,-1,-1,-1,-1,-1,-1,-1,-1,-1,-1,-1,-1,-1,-1,-1,-1,-1],"split_conditions":[1.48E1,6.7E0,2.42E1,2.5E0,1.01E1,1.92E1,2.98E1,6E-1,4.8E0,8.8E0,1.26E1,1.66E1,2.16E1,2.7E1,3.29E1,-5.8565926E-2,1.3611112E0,1.3333334E0,1.3055556E0,1.3611112E0,4.888889E0,1.13E1,5.4722223E0,4.888889E0,1.83E1,5.4722223E0,6.361111E0,4.8950206E-2,6.0021203E-2,7.167951E-2,8.733407E-2,-4.732305E-2,-5.7025965E-2,-3.9210998E-2,-4.7006134E-2,-3.0665709E-2,-3.792223E-2,7.7E0,5.7222223E0,1.4722222E0,-2.5317514E-2,4.0833335E0,5.4722223E0,1.37E1,1.9722222E0,1.56E1,1.51E1,4.388889E0,9.416667E0,2.02E1,2.1834962E-2,3.8686838E-2,2.8908944E-2,-2.4914112E-2,-2.0572312E-2,-2.7640564E-2,-3.8329225E-2,-1.5465637E-2,-1.9706234E-2,-9.98705E-3,-1.5323855E-2,-5.242528E-3,-1.2859315E-2,-3.090929E-4,3.7648205E-3,-9.021769E-3,-3.9523696E-3,7.979791E-3,1.1674821E-2,-0E0,3.1073708E-3,1.7323388E-2,9.857171E-3,2.1828374E-2,5.1995334E-3,2.6411721E-2,3.103735E-2],"split_indices":[0,0,0,0,0,0,0,0,0,0,0,0,0,0,0,0,2,2,2,2,3,0,3,3,0,3,3,0,0,0,0,0,0,0,0,0,0,0,3,2,0,3,3,0,2,0,0,3,3,0,0,0,0,0,0,0,0,0,0,0,0,0,0,0,0,0,0,0,0,0,0,0,0,0,0,0,0],"split_type":[0,0,0,0,0,0,0,0,0,0,0,0,0,0,0,0,0,0,0,0,0,0,0,0,0,0,0,0,0,0,0,0,0,0,0,0,0,0,0,0,0,0,0,0,0,0,0,0,0,0,0,0,0,0,0,0,0,0,0,0,0,0,0,0,0,0,0,0,0,0,0,0,0,0,0,0,0],"sum_hessian":[5.61E3,3.247E3,2.363E3,1.423E3,1.824E3,1.518E3,8.45E2,7.75E2,6.48E2,7.08E2,1.116E3,8.39E2,6.79E2,4.91E2,3.54E2,4.74E2,3.01E2,3.34E2,3.14E2,4.37E2,2.71E2,6.01E2,5.15E2,3.57E2,4.82E2,3.67E2,3.12E2,2.68E2,2.23E2,2.18E2,1.36E2,2.09E2,9.2E1,2.38E2,9.6E1,2.11E2,1.03E2,2.86E2,1.51E2,2.37E2,3.4E1,2.79E2,3.22E2,4.42E2,7.3E1,3.15E2,4.2E1,3.15E2,1.67E2,3.1E2,5.7E1,2.81E2,3.1E1,1.33E2,1.53E2,1.37E2,1.4E1,1.54E2,8.3E1,2.25E2,5.4E1,2.92E2,3E1,2.51E2,1.91E2,2.7E1,4.6E1,1.63E2,1.52E2,3E0,3.9E1,2.59E2,5.6E1,1.63E2,4E0,1.4E2,1.7E2],"tree_param":{"num_deleted":"0","num_feature":"17","num_nodes":"77","size_leaf_vector":"1"}},{"base_weights":[2.0742372E-3,-2.4826425E-1,3.315891E-1,-4.3344468E-1,-1.0872899E-1,1.9095644E-1,5.638074E-1,-5.029567E-1,-3.493525E-1,-2.0473213E-1,-4.1636568E-2,1.1727906E-1,2.7422658E-1,4.5997822E-1,6.8357027E-1,-5.299014E-2,-4.5690614E-1,-3.9453536E-1,-3.1935573E-1,-2.440937E-1,-1.7602235E-1,-7.598953E-2,6.820599E-4,7.949926E-2,1.5341516E-1,2.3379886E-1,3.154422E-1,4.0694352E-2,5.0135728E-2,6.1767735E-2,7.678066E-2,-5.268609E-2,-4.306449E-2,-4.4861924E-2,-3.7380505E-2,-3.6958702E-2,-2.9669588E-2,-3.0258337E-2,-2.276121E-2,-1.9595794E-1,-1.50233E-1,-9.92464E-2,-5.2455194E-2,-1.6588205E-2,1.4091779E-2,5.9682213E-2,9.543973E-3,1.3262507E-1,1.7387371E-1,2.1300374E-2,2.5353653E-2,2.9417515E-2,3.4427743E-2,-2.2476396E-2,-1.7934514E-2,-1.7979544E-2,-1.3424622E-2,-1.1025327E-2,-8.30306E-3,-6.31385E-3,-4.384283E-3,-1.3958138E-3,-1.0005132E-2,1.7219695E-3,-4.2339424E-3,6.1045224E-3,-0E0,1.3391537E-2,3.319804E-3,1.7590566E-2,3.944732E-3],"categories":[],"categories_nodes":[],"categories_segments":[],"categories_sizes":[],"default_left":[0,0,0,0,0,0,0,0,0,0,0,0,0,0,0,0,0,0,0,0,0,0,0,0,0,0,0,0,0,0,0,0,0,0,0,0,0,0,0,0,0,0,0,0,0,0,0,0,0,0,0,0,0,0,0,0,0,0,0,0,0,0,0,0,0,0,0,0,0,0,0],"id":2,"left_children":[1,3,5,7,9,11,13,15,17,19,21,23,25,27,29,-1,31,33,35,37,39,41,43,45,47,49,51,-1,-1,-1,-1,-1,-1,-1,-1,-1,-1,-1,-1,53,55,57,59,61,63,65,-1,67,69,-1,-1,-1,-1,-1,-1,-1,-1,-1,-1,-1,-1,-1,-1,-1,-1,-1,-1,-1,-1,-1,-1],"loss_changes":[4.6236603E2,8.219649E1,7.884793E1,7.7355957E0,1.1676727E1,9.186592E0,1.0911865E1,5.848541E-1,6.4699554E-1,7.5918007E-1,1.5660242E0,1.0607786E0,1.049366E0,7.848511E-1,1.723999E0,0E0,1.9909286E-1,2.2510529E-2,2.5738525E-1,1.7791367E-1,1.6061592E-1,3.041935E-1,1.11147024E-1,1.0388565E-1,1.1982727E-1,4.792595E-2,4.7058105E-2,0E0,0E0,0E0,0E0,0E0,0E0,0E0,0E0,0E0,0E0,0E0,0E0,3.460884E-2,3.7562847E-2,2.4170637E-2,1.4044225E-2,3.2641854E-2,4.65814E-2,1.8768966E-2,0E0,5.6557655E-3,2.6155472E-2,0E0,0E0,0E0,0E0,0E0,0E0,0E0,0E0,0E0,0E0,0E0,0E0,0E0,0E0,0E0,0E0,0E0,0E0,0E0,0E0,0E0,0E0],"parents":[2147483647,0,0,1,1,2,2,3,3,4,4,5,5,6,6,7,7,8,8,9,9,10,10,11,11,12,12,13,13,14,14,16,16,17,17,18,18,19,19,20,20,21,21,22,22,23,23,24,24,25,25,26,26,39,39,40,40,41,41,42,42,43,43,44,44,45,45,47,47,48,48],"right_children":[2,4,6,8,10,12,14,16,18,20,22,24,26,28,30,-1,32,34,36,38,40,42,44,46,48,50,52,-1,-1,-1,-1,-1,-1,-1,-1,-1,-1,-1,-1,54,56,58,60,62,64,66,-1,68,70,-1,-1,-1,-1,-1,-1,-1,-1,-1,-1,-1,-1,-1,-1,-1,-1,-1,-1,-1,-1,-1,-1],"split_conditions":[1.46E1,6.3E0,2.36E1,2.3E0,1.01E1,1.87E1,2.88E1,5E-1,4E0,8.1E0,1.26E1,1.66E1,2.09E1,2.57E1,3.21E1,-5.299014E-2,0E0,-1.184093E0,-9.766603E-1,-1.1209387E0,9.2E0,1.14E1,1.34E1,1.55E1,1.77E1,1.99E1,2.24E1,4.0694352E-2,5.0135728E-2,6.1767735E-2,7.678066E-2,-5.268609E-2,-4.306449E-2,-4.4861924E-2,-3.7380505E-2,-3.6958702E-2,-2.9669588E-2,-3.0258337E-2,-2.276121E-2,-5.810192E-1,-5.810192E-1,1.08E1,1.19E1,2.3E-1,1E-2,3E-2,9.543973E-3,1.8E-1,4.1E-1,2.1300374E-2,2.5353653E-2,2.9417515E-2,3.4427743E-2,-2.2476396E-2,-1.7934514E-2,-1.7979544E-2,-1.3424622E-2,-1.1025327E-2,-8.30306E-3,-6.31385E-3,-4.384283E-3,-1.3958138E-3,-1.0005132E-2,1.7219695E-3,-4.2339424E-3,6.1045224E-3,-0E0,1.3391537E-2,3.319804E-3,1.7590566E-2,3.944732E-3],"split_indices":[0,0,0,0,0,0,0,0,0,0,0,0,0,0,0,0,13,14,14,14,0,0,0,0,0,0,0,0,0,0,0,0,0,0,0,0,0,0,0,14,14,0,0,6,6,6,0,6,6,0,0,0,0,0,0,0,0,0,0,0,0,0,0,0,0,0,0,0,0,0,0],"split_type":[0,0,0,0,0,0,0,0,0,0,0,0,0,0,0,0,0,0,0,0,0,0,0,0,0,0,0,0,0,0,0,0,0,0,0,0,0,0,0,0,0,0,0,0,0,0,0,0,0,0,0,0,0,0,0,0,0,0,0,0,0,0,0,0,0,0,0,0,0,0,0],"sum_hessian":[5.603E3,3.184E3,2.419E3,1.367E3,1.817E3,1.508E3,9.11E2,7.45E2,6.22E2,7.46E2,1.071E3,8.02E2,7.06E2,4.91E2,4.2E2,4.62E2,2.83E2,2.42E2,3.8E2,3.1E2,4.36E2,5.92E2,4.79E2,3.95E2,4.07E2,3.61E2,3.45E2,2.21E2,2.7E2,2.41E2,1.79E2,7.1E1,2.12E2,6E1,1.82E2,1.12E2,2.68E2,6.3E1,2.47E2,2.4E2,1.96E2,2.94E2,2.98E2,2.06E2,2.73E2,1.81E2,2.14E2,2.08E2,1.99E2,1.84E2,1.77E2,2.07E2,1.38E2,8.1E1,1.59E2,6.3E1,1.33E2,1.68E2,1.26E2,1.25E2,1.73E2,2.02E2,4E0,2.61E2,1.2E1,1.78E2,3E0,2.04E2,4E0,1.95E2,4E0],"tree_param":{"num_deleted":"0","num_feature":"17","num_nodes":"71","size_leaf_vector":"1"}},{"base_weights":[-0E0,-2.2006686E-1,3.0311596E-1,-3.9265987E-1,-9.6747436E-2,1.8679379E-1,5.311679E-1,-4.51244E-1,-3.1390253E-1,-1.8710978E-1,-3.4458622E-2,1.1886406E-1,2.7452254E-1,4.627095E-1,6.6419715E-1,-4.759785E-2,-4.1110855E-1,-3.8049635E-2,-2.962944E-1,-2.2195905E-1,-1.5978299E-1,-6.842551E-2,3.8148297E-3,8.430803E-2,1.6305876E-1,2.4059772E-1,3.2793924E-2,4.1009452E-2,5.1262576E-2,6.2923156E-2,7.9541504E-2,-4.663963E-2,-3.8558763E-2,-3.1817842E-2,-2.582003E-2,-2.5747398E-2,-2.047251E-2,-2.0898907E-2,-1.510249E-1,-9.241446E-3,-5.09962E-2,-6.343702E-3,2.6083559E-2,6.47168E-2,1.0386678E-2,1.4192809E-1,1.8053545E-2,2.1371327E-2,2.598703E-2,-1.6363068E-2,-1.2918809E-2,-6.1657894E-3,-3.9349827E-3,-1.3541555E-3,2.4582312E-4,3.3423328E-3,1.6032894E-3,6.532679E-3,-0E0,5.039468E-3,1.4366411E-2],"categories":[],"categories_nodes":[],"categories_segments":[],"categories_sizes":[],"default_left":[0,0,0,0,0,0,0,0,0,0,0,0,0,0,0,0,0,0,0,0,0,0,0,0,0,0,0,0,0,0,0,0,0,0,0,0,0,0,0,0,0,0,0,0,0,0,0,0,0,0,0,0,0,0,0,0,0,0,0,0,0],"id":3,"left_children":[1,3,5,7,9,11,13,15,17,19,21,23,25,27,29,-1,31,-1,33,35,37,39,41,43,45,47,-1,-1,-1,-1,-1,-1,-1,-1,-1,-1,-1,-1,49,-1,51,53,55,57,-1,59,-1,-1,-1,-1,-1,-1,-1,-1,-1,-1,-1,-1,-1,-1,-1],"loss_changes":[3.745598E2,6.915016E1,6.248697E1,6.0337067E0,1.0660038E1,9.260433E0,6.8382416E0,4.8399353E-1,5.0203323E-1,6.6345596E-1,1.4705557E0,1.3130817E0,1.100132E0,1.0894623E0,5.866394E-1,0E0,1.6390991E-1,0E0,2.4868774E-1,1.0672188E-1,1.2162399E-1,2.3097658E-1,1.2180855E-1,1.6800976E-1,8.467865E-2,1.1575699E-1,0E0,0E0,0E0,0E0,0E0,0E0,0E0,0E0,0E0,0E0,0E0,0E0,5.363083E-2,0E0,3.1056702E-2,2.401278E-2,6.9855675E-3,7.425189E-3,0E0,2.27499E-3,0E0,0E0,0E0,0E0,0E0,0E0,0E0,0E0,0E0,0E0,0E0,0E0,0E0,0E0,0E0],"parents":[2147483647,0,0,1,1,2,2,3,3,4,4,5,5,6,6,7,7,8,8,9,9,10,10,11,11,12,12,13,13,14,14,16,16,18,18,19,19,20,20,21,21,22,22,23,23,24,24,25,25,38,38,40,40,41,41,42,42,43,43,45,45],"right_children":[2,4,6,8,10,12,14,16,18,20,22,24,26,28,30,-1,32,-1,34,36,38,40,42,44,46,48,-1,-1,-1,-1,-1,-1,-1,-1,-1,-1,-1,-1,50,-1,52,54,56,58,-1,60,-1,-1,-1,-1,-1,-1,-1,-1,-1,-1,-1,-1,-1,-1,-1],"split_conditions":[1.48E1,6.2E0,2.46E1,2.5E0,1.01E1,1.95E1,3.08E1,6E-1,-1.4936621E0,8.1E0,1.26E1,1.73E1,2.24E1,2.75E1,3.53E1,-4.759785E-2,-1.4113234E0,-3.8049635E-2,5E0,-5.810192E-1,-1.3201191E0,1.12E1,1.4E1,1.6E1,1.83E1,2.05E1,3.2793924E-2,4.1009452E-2,5.1262576E-2,6.2923156E-2,7.9541504E-2,-4.663963E-2,-3.8558763E-2,-3.1817842E-2,-2.582003E-2,-2.5747398E-2,-2.047251E-2,-2.0898907E-2,9.3E0,-9.241446E-3,1.19E1,1.34E1,1.5E1,9.79E1,1.0386678E-2,3.888889E-1,1.8053545E-2,2.1371327E-2,2.598703E-2,-1.6363068E-2,-1.2918809E-2,-6.1657894E-3,-3.9349827E-3,-1.3541555E-3,2.4582312E-4,3.3423328E-3,1.6032894E-3,6.532679E-3,-0E0,5.039468E-3,1.4366411E-2],"split_indices":[0,0,0,0,0,0,0,0,14,0,0,0,0,0,0,0,14,0,0,14,14,0,0,0,0,0,0,0,0,0,0,0,0,0,0,0,0,0,0,0,0,0,11,1,0,2,0,0,0,0,0,0,0,0,0,0,0,0,0,0,0],"split_type":[0,0,0,0,0,0,0,0,0,0,0,0,0,0,0,0,0,0,0,0,0,0,0,0,0,0,0,0,0,0,0,0,0,0,0,0,0,0,0,0,0,0,0,0,0,0,0,0,0,0,0,0,0,0,0,0,0,0,0,0,0],"sum_hessian":[5.613E3,3.252E3,2.361E3,1.354E3,1.898E3,1.565E3,7.96E2,7.73E2,5.81E2,7.73E2,1.125E3,8.84E2,6.81E2,5.29E2,2.67E2,4.7E2,3.03E2,1.16E2,4.65E2,3.35E2,4.38E2,5.97E2,5.28E2,4.99E2,3.85E2,4.21E2,2.6E2,2.63E2,2.66E2,2.16E2,5.1E1,8.9E1,2.14E2,2.89E2,1.76E2,1.03E2,2.32E2,6.1E1,3.77E2,2.47E2,3.5E2,3.6E2,1.68E2,2.54E2,2.45E2,1.81E2,2.04E2,1.83E2,2.38E2,2.32E2,1.45E2,1.76E2,1.74E2,2.04E2,1.56E2,9E1,7.8E1,2.51E2,3E0,5E0,1.76E2],"tree_param":{"num_deleted":"0","num_feature":"17","num_nodes":"61","size_leaf_vector":"1"}},{"base_weights":[-1.4194697E-3,-1.7831914E-1,2.4941942E-1,-3.4090966E-1,-8.007386E-2,4.033871E-1,9.056179E-2,-4.0947425E-1,-2.8775692E-1,1.1779013E-2,-1.9037783E-1,2.9697782E-1,5.048784E-1,1.6422851E-1,1.0789198E-2,-2.179783E-1,-4.1703722E-1,-1.7611411E-1,-3.4564778E-1,1.0068957E-1,-4.144129E-2,-2.3684798E-1,-1.1424397E-1,2.3476046E-1,3.4766412E-1,5.6899923E-1,4.2073604E-1,9.697312E-2,2.1335281E-1,-4.8153028E-2,7.7102266E-2,-3.1410582E-2,-1.500409E-2,-4.381549E-2,-3.8627416E-1,-1.2533768E-1,-2.181266E-2,-2.9924575E-2,-3.7378557E-2,3.427694E-2,1.6521575E-1,-9.290317E-2,2.0355374E-2,-1.9379166E-1,-2.7617323E-1,-6.8098195E-2,-1.7796169E-1,2.792787E-1,1.9475019E-1,3.89685E-2,3.0225655E-2,5.2660238E-2,6.592347E-2,3.8288018E-1,4.641714E-2,1.24581836E-1,5.2485965E-2,1.801203E-1,2.5188762E-1,-7.616738E-3,-8.112896E-2,1.1477436E-1,3.4052443E-2,-2.4620928E-2,-4.016586E-2,-3.4210545E-3,-1.3898534E-2,-3.4447224E-4,6.541107E-3,2.2127986E-2,1.3935456E-2,-7.2920956E-3,-1.6882181E-2,5.8589703E-3,-5.521968E-4,-2.3604425E-2,-1.5805215E-2,-3.1137759E-2,-2.4799226E-2,-3.9202967E-3,-8.962946E-3,-1.5935121E-2,-2.2865674E-2,3.222112E-2,2.511094E-2,1.6366407E-2,2.1593472E-2,4.0518135E-2,3.1667545E-2,9.296696E-3,1.4671092E-2,6.5607727E-3,-9.556045E-4,2.1165656E-2,1.4925184E-2,2.776303E-2,2.1647535E-2,-2.9703367E-3,2.5435574E-3,-1.20254485E-2,-3.5501686E-3,9.76909E-3,1.5407887E-2,4.4391616E-3,-1.08914515E-2],"categories":[],"categories_nodes":[],"categories_segments":[],"categories_sizes":[],"default_left":[0,0,0,0,0,0,0,0,0,0,0,0,0,0,0,0,0,0,0,0,0,0,0,0,0,0,0,0,0,0,0,0,0,0,0,0,0,0,0,0,0,0,0,0,0,0,0,0,0,0,0,0,0,0,0,0,0,0,0,0,0,0,0,0,0,0,0,0,0,0,0,0,0,0,0,0,0,0,0,0,0,0,0,0,0,0,0,0,0,0,0,0,0,0,0,0,0,0,0,0,0,0,0,0,0],"id":4,"left_children":[1,3,5,7,9,11,13,15,17,19,21,23,25,27,29,31,33,35,37,39,41,43,45,47,49,51,53,55,57,59,61,-1,-1,-1,63,65,-1,-1,-1,67,69,71,73,75,77,79,81,83,85,-1,-1,-1,-1,87,-1,89,91,93,95,97,99,101,103,-1,-1,-1,-1,-1,-1,-1,-1,-1,-1,-1,-1,-1,-1,-1,-1,-1,-1,-1,-1,-1,-1,-1,-1,-1,-1,-1,-1,-1,-1,-1,-1,-1,-1,-1,-1,-1,-1,-1,-1,-1,-1],"loss_changes":[2.4861667E2,5.2420357E1,5.658545E1,4.320572E0,2.0790161E1,1.247023E1,6.691787E0,6.233139E-1,4.4175797E0,5.305034E0,3.2352066E0,1.6797447E0,2.8987885E0,1.9074755E0,2.1563597E0,5.6661606E-2,8.288574E-2,4.5455885E-1,4.2144394E-1,1.7742362E0,2.2352667E0,8.76461E-1,1.0100236E0,3.6665916E-1,4.140625E-1,8.235321E-1,1.7166138E-1,2.8649735E-1,3.4811592E-1,3.794936E-1,4.02871E-1,0E0,0E0,0E0,3.1038284E-1,1.18460536E-1,0E0,0E0,0E0,2.5187808E-1,2.4047613E-1,5.4453444E-1,3.2026035E-1,3.4610748E-1,1.6248512E-1,1.1363256E-1,6.4394474E-2,8.09288E-3,2.087164E-2,0E0,0E0,0E0,0E0,1.8016815E-2,0E0,7.0132494E-2,8.764219E-2,1.1533213E-1,3.0878067E-2,9.827418E-2,2.6400065E-1,5.1760435E-2,1.8167444E-1,0E0,0E0,0E0,0E0,0E0,0E0,0E0,0E0,0E0,0E0,0E0,0E0,0E0,0E0,0E0,0E0,0E0,0E0,0E0,0E0,0E0,0E0,0E0,0E0,0E0,0E0,0E0,0E0,0E0,0E0,0E0,0E0,0E0,0E0,0E0,0E0,0E0,0E0,0E0,0E0,0E0,0E0],"parents":[2147483647,0,0,1,1,2,2,3,3,4,4,5,5,6,6,7,7,8,8,9,9,10,10,11,11,12,12,13,13,14,14,15,15,16,16,17,17,18,18,19,19,20,20,21,21,22,22,23,23,24,24,25,25,26,26,27,27,28,28,29,29,30,30,34,34,35,35,39,39,40,40,41,41,42,42,43,43,44,44,45,45,46,46,47,47,48,48,53,53,55,55,56,56,57,57,58,58,59,59,60,60,61,61,62,62],"right_children":[2,4,6,8,10,12,14,16,18,20,22,24,26,28,30,32,34,36,38,40,42,44,46,48,50,52,54,56,58,60,62,-1,-1,-1,64,66,-1,-1,-1,68,70,72,74,76,78,80,82,84,86,-1,-1,-1,-1,88,-1,90,92,94,96,98,100,102,104,-1,-1,-1,-1,-1,-1,-1,-1,-1,-1,-1,-1,-1,-1,-1,-1,-1,-1,-1,-1,-1,-1,-1,-1,-1,-1,-1,-1,-1,-1,-1,-1,-1,-1,-1,-1,-1,-1,-1,-1,-1,-1],"split_conditions":[7.414E0,-5.68E-1,5.203E1,-3.662E0,6.599E1,1.3478E1,7.419E1,4.355E1,6.547E1,4.355E1,4.422E0,1.092E1,2.878E1,1.0728E1,1.145E1,-6.218E0,-5.682E0,5.26E1,7.694E1,3.42E0,3.374E0,7.941E1,8.243E1,3.885E1,3.578E1,1.7344E1,1.5238E1,6.428E1,1.3176E1,8.665E1,8.817E1,-3.1410582E-2,-1.500409E-2,-4.381549E-2,5.774E1,3.646E1,-2.181266E-2,-2.9924575E-2,-3.7378557E-2,1.504E0,2.878E1,3.2037845E-1,5.417E1,1.504E0,1.38E0,7.211E1,2.5833333E0,3.094E1,8.934E0,3.89685E-2,3.0225655E-2,5.2660238E-2,6.592347E-2,4.45E1,4.641714E-2,9.032E0,4.888889E0,6.146E1,6.334E1,9.856E0,9.422E0,1.3932E1,4.51E0,-2.4620928E-2,-4.016586E-2,-3.4210545E-3,-1.3898534E-2,-3.4447224E-4,6.541107E-3,2.2127986E-2,1.3935456E-2,-7.2920956E-3,-1.6882181E-2,5.8589703E-3,-5.521968E-4,-2.3604425E-2,-1.5805215E-2,-3.1137759E-2,-2.4799226E-2,-3.9202967E-3,-8.962946E-3,-1.5935121E-2,-2.2865674E-2,3.222112E-2,2.511094E-2,1.6366407E-2,2.1593472E-2,4.0518135E-2,3.1667545E-2,9.296696E-3,1.4671092E-2,6.5607727E-3,-9.556045E-4,2.1165656E-2,1.4925184E-2,2.776303E-2,2.1647535E-2,-2.9703367E-3,2.5435574E-3,-1.20254485E-2,-3.5501686E-3,9.76909E-3,1.5407887E-2,4.4391616E-3,-1.08914515E-2],"split_indices":[9,9,1,9,1,9,1,1,1,1,9,9,1,9,9,9,9,1,1,9,9,1,1,1,1,9,9,1,9,1,1,0,0,0,1,1,0,0,0,9,1,13,1,9,9,1,3,1,9,0,0,0,0,1,0,9,3,1,1,9,9,9,6,0,0,0,0,0,0,0,0,0,0,0,0,0,0,0,0,0,0,0,0,0,0,0,0,0,0,0,0,0,0,0,0,0,0,0,0,0,0,0,0,0,0],"split_type":[0,0,0,0,0,0,0,0,0,0,0,0,0,0,0,0,0,0,0,0,0,0,0,0,0,0,0,0,0,0,0,0,0,0,0,0,0,0,0,0,0,0,0,0,0,0,0,0,0,0,0,0,0,0,0,0,0,0,0,0,0,0,0,0,0,0,0,0,0,0,0,0,0,0,0,0,0,0,0,0,0,0,0,0,0,0,0,0,0,0,0,0,0,0,0,0,0,0,0,0,0,0,0,0,0],"sum_hessian":[5.601E3,3.285E3,2.316E3,1.236E3,2.049E3,1.175E3,1.141E3,5.36E2,7E2,1.118E3,9.31E2,5.76E2,5.99E2,5.92E2,5.49E2,2.2E1,5.14E2,2.41E2,4.59E2,4.19E2,6.99E2,5.76E2,3.55E2,2.62E2,3.14E2,3.36E2,2.63E2,2.52E2,3.4E2,2.9E2,2.59E2,7E0,1.5E1,2.95E2,2.19E2,1.12E2,1.29E2,1.79E2,2.8E2,2.08E2,2.11E2,3.82E2,3.17E2,2.79E2,2.97E2,2.08E2,1.47E2,1.2E2,1.42E2,1.58E2,1.56E2,2.34E2,1.02E2,1.47E2,1.16E2,1.53E2,9.9E1,1.87E2,1.53E2,1.32E2,1.58E2,1.36E2,1.23E2,2.4E1,1.95E2,1.6E1,9.6E1,9.3E1,1.15E2,6.3E1,1.48E2,3.05E2,7.7E1,1.29E2,1.88E2,1.24E2,1.55E2,1.26E2,1.71E2,9.2E1,1.16E2,1.12E2,3.5E1,4.2E1,7.8E1,6.3E1,7.9E1,1.05E2,4.2E1,6.7E1,8.6E1,8.3E1,1.6E1,8.8E1,9.9E1,8.3E1,7E1,8.1E1,5.1E1,8.3E1,7.5E1,9.9E1,3.7E1,1.16E2,7E0],"tree_param":{"num_deleted":"0","num_feature":"17","num_nodes":"105","size_leaf_vector":"1"}},{"base_weights":[-4.0739705E-4,-1.5372735E-1,2.3714122E-1,-2.877483E-1,-5.41411E-2,3.9304426E-1,1.12702854E-1,-3.569865E-1,-2.334892E-1,3.5200763E-2,-1.4435291E-1,3.1030485E-1,4.857054E-1,1.7902046E-1,2.7130054E-2,-1.9568259E-1,-3.6447155E-1,-1.2028128E-1,-2.889702E-1,1.07071824E-1,-1.1245268E-2,-1.9326456E-1,-9.074867E-2,2.4392918E-1,3.5005158E-1,5.415213E-1,4.199425E-2,1.3469012E-1,2.4023725E-1,-1.3431017E-2,9.40949E-2,-3.0112205E-2,-1.415679E-2,-4.1251246E-2,-3.4491944E-1,-4.057688E-2,-1.4827198E-1,-2.3796554E-1,-3.2079065E-1,5.9970483E-2,1.659082E-1,-4.9579695E-2,5.2250974E-2,-1.394847E-1,-2.2349234E-1,-4.2311616E-2,-1.4780071E-1,3.0371198E-2,2.2170873E-1,3.8914587E-2,3.1221936E-2,5.056545E-2,6.254464E-2,9.0374224E-2,1.623793E-1,2.6783022E-1,1.9359268E-1,2.5134742E-2,-4.1760974E-2,1.2988237E-1,6.2039796E-2,-3.827304E-2,-3.1652212E-2,9.77538E-4,-5.663673E-3,-1.1835286E-2,-1.7124709E-2,-2.6648656E-2,-2.170394E-2,-3.8931485E-2,-3.089836E-2,1.2092423E-2,4.099026E-3,1.9768039E-2,1.3400569E-2,-1.0601126E-3,-7.339923E-3,7.942176E-3,2.8260387E-3,-1.6885726E-2,-1.0756445E-2,-2.789694E-2,-2.0635804E-2,-1.3059032E-3,-5.8870227E-3,-1.11215925E-2,-1.6723013E-2,1.9934967E-2,2.5112098E-2,1.2539762E-2,5.879858E-3,1.830595E-2,1.2769465E-2,2.4942337E-2,3.32526E-2,1.620932E-2,2.1652402E-2,-0E0,6.997268E-3,-8.73782E-3,-2.4738628E-3,1.3469174E-2,5.83838E-3,8.050853E-3,2.610517E-3],"categories":[],"categories_nodes":[],"categories_segments":[],"categories_sizes":[],"default_left":[0,0,0,0,0,0,0,0,0,0,0,0,0,0,0,0,0,0,0,0,0,0,0,0,0,0,0,0,0,0,0,0,0,0,0,0,0,0,0,0,0,0,0,0,0,0,0,0,0,0,0,0,0,0,0,0,0,0,0,0,0,0,0,0,0,0,0,0,0,0,0,0,0,0,0,0,0,0,0,0,0,0,0,0,0,0,0,0,0,0,0,0,0,0,0,0,0,0,0,0,0,0,0,0,0],"id":5,"left_children":[1,3,5,7,9,11,13,15,17,19,21,23,25,27,29,31,33,35,37,39,41,43,45,47,49,51,-1,53,55,57,59,-1,-1,-1,61,63,65,67,69,71,73,75,77,79,81,83,85,-1,87,-1,-1,-1,-1,89,91,93,95,97,99,101,103,-1,-1,-1,-1,-1,-1,-1,-1,-1,-1,-1,-1,-1,-1,-1,-1,-1,-1,-1,-1,-1,-1,-1,-1,-1,-1,-1,-1,-1,-1,-1,-1,-1,-1,-1,-1,-1,-1,-1,-1,-1,-1,-1,-1],"loss_changes":[2.0475026E2,4.5555725E1,4.268284E1,5.3274994E0,1.5829111E1,7.267746E0,6.943407E0,6.417618E-1,5.074646E0,3.3021784E0,2.5156288E0,1.2270851E0,1.3612595E0,1.8053608E0,1.4706273E0,8.998227E-2,3.5212708E-1,5.819261E-1,7.5881195E-1,1.0427165E0,1.4603447E0,7.5998306E-1,1.2707856E0,1.4447308E-1,2.8461075E-1,3.050995E-1,0E0,4.5578575E-1,2.726822E-1,3.68722E-1,2.0677292E-1,0E0,0E0,0E0,2.8030014E-1,6.42712E-2,8.825159E-2,2.2726059E-2,8.010483E-2,2.3105943E-1,1.1366892E-1,3.3899117E-1,1.3365203E-1,1.2952209E-1,2.0092964E-1,1.1604011E-1,1.0567236E-1,0E0,3.5362244E-3,0E0,0E0,0E0,0E0,1.5004301E-1,1.2200117E-1,6.964493E-2,7.941723E-3,1.6062748E-1,1.3804656E-1,5.1517487E-3,6.0903996E-2,0E0,0E0,0E0,0E0,0E0,0E0,0E0,0E0,0E0,0E0,0E0,0E0,0E0,0E0,0E0,0E0,0E0,0E0,0E0,0E0,0E0,0E0,0E0,0E0,0E0,0E0,0E0,0E0,0E0,0E0,0E0,0E0,0E0,0E0,0E0,0E0,0E0,0E0,0E0,0E0,0E0,0E0,0E0,0E0],"parents":[2147483647,0,0,1,1,2,2,3,3,4,4,5,5,6,6,7,7,8,8,9,9,10,10,11,11,12,12,13,13,14,14,15,15,16,16,17,17,18,18,19,19,20,20,21,21,22,22,23,23,24,24,25,25,27,27,28,28,29,29,30,30,34,34,35,35,36,36,37,37,38,38,39,39,40,40,41,41,42,42,43,43,44,44,45,45,46,46,48,48,53,53,54,54,55,55,56,56,57,57,58,58,59,59,60,60],"right_children":[2,4,6,8,10,12,14,16,18,20,22,24,26,28,30,32,34,36,38,40,42,44,46,48,50,52,-1,54,56,58,60,-1,-1,-1,62,64,66,68,70,72,74,76,78,80,82,84,86,-1,88,-1,-1,-1,-1,90,92,94,96,98,100,102,104,-1,-1,-1,-1,-1,-1,-1,-1,-1,-1,-1,-1,-1,-1,-1,-1,-1,-1,-1,-1,-1,-1,-1,-1,-1,-1,-1,-1,-1,-1,-1,-1,-1,-1,-1,-1,-1,-1,-1,-1,-1,-1,-1,-1],"split_conditions":[7.856E0,2.62E-1,4.61E1,-2.958E0,6.303E1,1.4304E1,7.211E1,4.355E1,6.228E1,4.252E1,4.422E0,1.1228E1,2.44E1,1.2418E1,1.2636E1,-7.144E0,-4.469459E-1,4.323E1,7.622E1,4.422E0,4.32E0,7.437E1,8.036E1,3.094E1,3.179E1,1.8086E1,4.199425E-2,9.76E0,6.041E1,8.422E1,8.422E1,-3.0112205E-2,-1.415679E-2,-4.1251246E-2,-5.92E0,3.297E1,5.291E1,-1.504E0,0E0,2.92E1,3.434E1,5.096E1,5.291E1,2.35E0,-1.2424006E0,6.803E1,8.747E1,3.0371198E-2,9.97E0,3.8914587E-2,3.1221936E-2,5.056545E-2,6.254464E-2,5.85E1,5.998E1,1.5238E1,1.3648E1,1.092E1,9.032E0,5E-2,9.497E1,-3.827304E-2,-3.1652212E-2,9.77538E-4,-5.663673E-3,-1.1835286E-2,-1.7124709E-2,-2.6648656E-2,-2.170394E-2,-3.8931485E-2,-3.089836E-2,1.2092423E-2,4.099026E-3,1.9768039E-2,1.3400569E-2,-1.0601126E-3,-7.339923E-3,7.942176E-3,2.8260387E-3,-1.6885726E-2,-1.0756445E-2,-2.789694E-2,-2.0635804E-2,-1.3059032E-3,-5.8870227E-3,-1.11215925E-2,-1.6723013E-2,1.9934967E-2,2.5112098E-2,1.2539762E-2,5.879858E-3,1.830595E-2,1.2769465E-2,2.4942337E-2,3.32526E-2,1.620932E-2,2.1652402E-2,-0E0,6.997268E-3,-8.73782E-3,-2.4738628E-3,1.3469174E-2,5.83838E-3,8.050853E-3,2.610517E-3],"split_indices":[9,9,1,9,1,9,1,1,1,1,9,9,1,9,9,9,13,1,1,9,9,1,1,1,1,9,0,9,1,1,1,0,0,0,9,1,1,9,13,1,1,1,1,9,14,1,1,0,9,0,0,0,0,1,1,9,9,9,9,6,1,0,0,0,0,0,0,0,0,0,0,0,0,0,0,0,0,0,0,0,0,0,0,0,0,0,0,0,0,0,0,0,0,0,0,0,0,0,0,0,0,0,0,0,0],"split_type":[0,0,0,0,0,0,0,0,0,0,0,0,0,0,0,0,0,0,0,0,0,0,0,0,0,0,0,0,0,0,0,0,0,0,0,0,0,0,0,0,0,0,0,0,0,0,0,0,0,0,0,0,0,0,0,0,0,0,0,0,0,0,0,0,0,0,0,0,0,0,0,0,0,0,0,0,0,0,0,0,0,0,0,0,0,0,0,0,0,0,0,0,0,0,0,0,0,0,0,0,0,0,0,0,0],"sum_hessian":[5.62E3,3.416E3,2.204E3,1.455E3,1.961E3,9.77E2,1.227E3,6.36E2,8.19E2,9.85E2,9.76E2,5.19E2,4.58E2,6.9E2,5.37E2,3E1,6.06E2,2.71E2,5.48E2,3.87E2,5.98E2,5.08E2,4.68E2,1.98E2,3.21E2,2.43E2,2.15E2,4.03E2,2.87E2,3.34E2,2.03E2,8E0,2.2E1,1.68E2,4.38E2,7.2E1,1.99E2,2.15E2,3.33E2,2.17E2,1.7E2,3.74E2,2.24E2,1.86E2,3.22E2,2.55E2,2.13E2,4.9E1,1.49E2,1.52E2,1.69E2,1.76E2,6.7E1,1.58E2,2.45E2,1.76E2,1.11E2,1.4E2,1.94E2,9.3E1,1.1E2,1.81E2,2.57E2,1.6E1,5.6E1,9.1E1,1.08E2,8.4E1,1.31E2,4.3E1,2.9E2,4.9E1,1.68E2,8.1E1,8.9E1,1.44E2,2.3E2,1.02E2,1.22E2,9.3E1,9.3E1,7.1E1,2.51E2,9.5E1,1.6E2,7.8E1,1.35E2,9.1E1,5.8E1,7.2E1,8.6E1,1.49E2,9.6E1,1.42E2,3.4E1,5.2E1,5.9E1,9E1,5E1,5E1,1.44E2,8.5E1,8E0,7E1,4E1],"tree_param":{"num_deleted":"0","num_feature":"17","num_nodes":"105","size_leaf_vector":"1"}},{"base_weights":[-1.7792323E-4,-1.626603E-1,2.2166516E-1,-2.8874505E-1,-7.379062E-2,1.3025755E-1,3.7547907E-1,-3.256548E-1,-2.2146152E-1,-1.3424388E-1,-2.3429928E-2,7.992135E-2,1.8200023E-1,3.1994188E-1,4.759172E-1,-3.4767203E-2,-2.897066E-1,-2.6374802E-2,-2.0352982E-1,-1.2783094E-1,-2.4046287E-2,-5.0754312E-2,-5.142048E-4,5.252495E-2,1.0303884E-1,1.540424E-1,2.1501866E-1,2.864864E-1,3.6447223E-2,4.5430664E-2,5.9134163E-2,-3.5080396E-2,-2.6901051E-2,-2.147021E-2,-1.814404E-2,-1.4588077E-1,-9.7162545E-2,-4.3586895E-2,-1.109258E-1,8.349867E-3,-6.1032273E-2,6.0185764E-2,-0E0,1.1058823E-1,6.230603E-2,1.6496143E-1,9.4605386E-2,2.2732072E-2,1.635627E-1,2.9915398E-2,2.2938441E-2,-1.6271418E-2,-1.2938998E-2,-1.2687829E-2,-8.917824E-3,-6.1860015E-3,-3.5755516E-3,-1.2721034E-2,-7.1162106E-3,-6.9129287E-4,2.0299647E-3,-4.241088E-3,-8.993289E-3,5.2535473E-3,7.61567E-3,-1.3680592E-3,1.0317108E-3,9.356507E-3,1.2007839E-2,6.851626E-3,9.435054E-4,1.4775555E-2,1.7657546E-2,9.882947E-3,3.3056736E-4,1.6709894E-2,3.9324216E-3],"categories":[],"categories_nodes":[],"categories_segments":[],"categories_sizes":[],"default_left":[0,0,0,0,0,0,0,0,0,0,0,0,0,0,0,0,0,0,0,0,0,0,0,0,0,0,0,0,0,0,0,0,0,0,0,0,0,0,0,0,0,0,0,0,0,0,0,0,0,0,0,0,0,0,0,0,0,0,0,0,0,0,0,0,0,0,0,0,0,0,0,0,0,0,0,0,0],"id":6,"left_children":[1,3,5,7,9,11,13,15,17,19,21,23,25,27,29,-1,31,-1,33,35,-1,37,39,41,43,45,47,49,-1,-1,-1,-1,-1,-1,-1,51,53,55,57,59,61,63,65,67,69,71,73,-1,75,-1,-1,-1,-1,-1,-1,-1,-1,-1,-1,-1,-1,-1,-1,-1,-1,-1,-1,-1,-1,-1,-1,-1,-1,-1,-1,-1,-1],"loss_changes":[2.0174127E2,3.6146156E1,3.3165916E1,3.18853E0,5.756441E0,3.8295956E0,4.682411E0,5.15419E-1,2.6128578E-1,5.189247E-1,6.441729E-1,4.5783377E-1,6.0477257E-1,6.8115234E-1,4.025421E-1,0E0,2.659855E-1,0E0,5.5856705E-3,4.12673E-1,0E0,1.8284404E-1,3.0993736E-1,1.355825E-1,1.0097647E-1,2.186842E-1,1.3325882E-1,1.1867523E-1,0E0,0E0,0E0,0E0,0E0,0E0,0E0,9.103203E-2,3.9918184E-2,4.8702598E-2,2.1918416E-3,9.15782E-2,2.2776067E-2,2.0273328E-2,6.4814202E-3,2.2328377E-2,1.3885587E-2,8.620262E-3,1.4913201E-2,0E0,3.1006336E-3,0E0,0E0,0E0,0E0,0E0,0E0,0E0,0E0,0E0,0E0,0E0,0E0,0E0,0E0,0E0,0E0,0E0,0E0,0E0,0E0,0E0,0E0,0E0,0E0,0E0,0E0,0E0,0E0],"parents":[2147483647,0,0,1,1,2,2,3,3,4,4,5,5,6,6,7,7,8,8,9,9,10,10,11,11,12,12,13,13,14,14,16,16,18,18,19,19,21,21,22,22,23,23,24,24,25,25,26,26,27,27,35,35,36,36,37,37,38,38,39,39,40,40,41,41,42,42,43,43,44,44,45,45,46,46,48,48],"right_children":[2,4,6,8,10,12,14,16,18,20,22,24,26,28,30,-1,32,-1,34,36,-1,38,40,42,44,46,48,50,-1,-1,-1,-1,-1,-1,-1,52,54,56,58,60,62,64,66,68,70,72,74,-1,76,-1,-1,-1,-1,-1,-1,-1,-1,-1,-1,-1,-1,-1,-1,-1,-1,-1,-1,-1,-1,-1,-1,-1,-1,-1,-1,-1,-1],"split_conditions":[1.48E1,6.1E0,2.38E1,3.2E0,1.03E1,1.87E1,3.03E1,1.1E0,-9.766603E-1,5.7222223E0,1.23E1,1.65E1,2.11E1,2.73E1,3.53E1,-3.4767203E-2,-1.740527E0,-2.6374802E-2,5.1E0,8.8E0,-2.4046287E-2,4.888889E0,5.4722223E0,4.888889E0,4.388889E0,5.4722223E0,4.888889E0,4.888889E0,3.6447223E-2,4.5430664E-2,5.9134163E-2,-3.5080396E-2,-2.6901051E-2,-2.147021E-2,-1.814404E-2,7.5E0,-8.945426E-1,1.09E1,2.6944444E0,1.33E1,7.6944447E0,1.59E1,2.0277777E0,1.73E1,8.194445E0,1.98E1,9.416667E0,2.2732072E-2,1.0416667E1,2.9915398E-2,2.2938441E-2,-1.6271418E-2,-1.2938998E-2,-1.2687829E-2,-8.917824E-3,-6.1860015E-3,-3.5755516E-3,-1.2721034E-2,-7.1162106E-3,-6.9129287E-4,2.0299647E-3,-4.241088E-3,-8.993289E-3,5.2535473E-3,7.61567E-3,-1.3680592E-3,1.0317108E-3,9.356507E-3,1.2007839E-2,6.851626E-3,9.435054E-4,1.4775555E-2,1.7657546E-2,9.882947E-3,3.3056736E-4,1.6709894E-2,3.9324216E-3],"split_indices":[0,0,0,0,0,0,0,0,14,3,0,0,0,0,0,0,14,0,0,0,0,3,3,3,3,3,3,3,0,0,0,0,0,0,0,0,14,0,2,0,3,0,2,0,3,0,3,0,3,0,0,0,0,0,0,0,0,0,0,0,0,0,0,0,0,0,0,0,0,0,0,0,0,0,0,0,0],"split_type":[0,0,0,0,0,0,0,0,0,0,0,0,0,0,0,0,0,0,0,0,0,0,0,0,0,0,0,0,0,0,0,0,0,0,0,0,0,0,0,0,0,0,0,0,0,0,0,0,0,0,0,0,0,0,0,0,0,0,0,0,0,0,0,0,0,0,0,0,0,0,0,0,0,0,0,0,0],"sum_hessian":[5.595E3,3.23E3,2.365E3,1.334E3,1.896E3,1.485E3,8.8E2,8.58E2,4.76E2,8.6E2,1.036E3,7.55E2,7.3E2,5.7E2,3.1E2,5.25E2,3.33E2,1.36E2,3.4E2,8.14E2,4.6E1,4.7E2,5.66E2,3.49E2,4.06E2,4E2,3.3E2,3.31E2,2.39E2,2.66E2,4.4E1,7.9E1,2.54E2,2.17E2,1.23E2,5.08E2,3.06E2,4.23E2,4.7E1,4.93E2,7.3E1,3.03E2,4.6E1,3.39E2,6.7E1,3.35E2,6.5E1,2.62E2,6.8E1,2.66E2,6.5E1,2.44E2,2.64E2,5.9E1,2.47E2,1.21E2,3.02E2,3E1,1.7E1,2.13E2,2.8E2,4.8E1,2.5E1,2.12E2,9.1E1,1.6E1,3E1,1.29E2,2.1E2,5.8E1,9E0,1.44E2,1.91E2,6.1E1,4E0,6.5E1,3E0],"tree_param":{"num_deleted":"0","num_feature":"17","num_nodes":"77","size_leaf_vector":"1"}},{"base_weights":[1.0075675E-3,-1.4982727E-1,1.9383155E-1,-2.4629597E-1,-5.7253662E-2,1.09468155E-1,3.32623E-1,-2.940039E-1,-1.8581103E-1,-1.0359639E-1,-1.9673517E-2,6.5083005E-2,1.5879528E-1,2.703468E-1,4.087298E-1,-3.184076E-2,-2.6564386E-1,-1.7911439E-1,-2.8216619E-2,-9.621988E-2,-1.6971092E-1,-3.726004E-2,-7.6377543E-4,4.284518E-2,8.707914E-2,1.3463134E-1,1.8393743E-1,2.4187478E-1,3.0079353E-1,3.8231012E-1,4.97392E-2,-3.1989302E-2,-2.4852104E-2,-2.0310652E-1,-1.5723401E-1,-1.1310722E-1,-7.225826E-2,-2.0227764E-2,-1.3930331E-2,-3.0721474E-2,-9.640547E-3,9.042613E-3,-3.5698492E-2,5.0770283E-2,-4.40322E-3,9.397906E-2,3.0101491E-2,1.4183275E-2,8.9833304E-2,1.9485708E-2,1.3722521E-2,2.5407394E-2,1.952034E-2,3.1153435E-2,2.4678888E-2,3.9099984E-2,2.955362E-2,-1.9098585E-2,-2.3172773E-2,-1.4661101E-2,-1.8149186E-2,-1.03547275E-2,-1.3652067E-2,-6.589003E-3,-9.536671E-3,-4.1270326E-3,-1.880117E-3,-1.8628074E-4,1.7922613E-3,-6.5436265E-3,-2.3818181E-3,3.9294213E-3,5.9562395E-3,-2.1357727E-3,4.4913913E-4,8.1507005E-3,1.0449054E-2,4.5193178E-3,2.1936276E-5,5.353899E-3,1.0393996E-2],"categories":[],"categories_nodes":[],"categories_segments":[],"categories_sizes":[],"default_left":[0,0,0,0,0,0,0,0,0,0,0,0,0,0,0,0,0,0,0,0,0,0,0,0,0,0,0,0,0,0,0,0,0,0,0,0,0,0,0,0,0,0,0,0,0,0,0,0,0,0,0,0,0,0,0,0,0,0,0,0,0,0,0,0,0,0,0,0,0,0,0,0,0,0,0,0,0,0,0,0,0],"id":7,"left_children":[1,3,5,7,9,11,13,15,17,19,21,23,25,27,29,-1,31,33,-1,35,37,39,41,43,45,47,49,51,53,55,-1,-1,-1,57,59,61,63,-1,-1,65,-1,67,69,71,73,75,77,-1,79,-1,-1,-1,-1,-1,-1,-1,-1,-1,-1,-1,-1,-1,-1,-1,-1,-1,-1,-1,-1,-1,-1,-1,-1,-1,-1,-1,-1,-1,-1,-1,-1],"loss_changes":[1.6439037E2,2.8274033E1,2.8969208E1,4.3758545E0,2.8069725E0,3.3498898E0,4.262642E0,4.556656E-1,3.4726715E-1,3.1016827E-1,2.9447246E-1,3.8241982E-1,3.8687897E-1,3.2289124E-1,7.0334625E-1,0E0,2.4264717E-1,2.7167892E-1,0E0,2.3833561E-1,6.9835186E-3,1.6299313E-1,1.5235476E-1,1.5838414E-1,1.4477158E-1,8.603907E-2,1.20111465E-1,6.204605E-2,9.397507E-3,6.3114166E-2,0E0,0E0,0E0,1.8585205E-2,2.9483795E-2,4.691267E-2,1.8206596E-2,0E0,0E0,4.590431E-2,0E0,3.4468167E-2,2.4138793E-2,2.3391068E-2,1.0529177E-2,2.0210743E-2,1.6644504E-2,0E0,7.870793E-3,0E0,0E0,0E0,0E0,0E0,0E0,0E0,0E0,0E0,0E0,0E0,0E0,0E0,0E0,0E0,0E0,0E0,0E0,0E0,0E0,0E0,0E0,0E0,0E0,0E0,0E0,0E0,0E0,0E0,0E0,0E0,0E0],"parents":[2147483647,0,0,1,1,2,2,3,3,4,4,5,5,6,6,7,7,8,8,9,9,10,10,11,11,12,12,13,13,14,14,16,16,17,17,19,19,20,20,21,21,22,22,23,23,24,24,25,25,26,26,27,27,28,28,29,29,33,33,34,34,35,35,36,36,39,39,41,41,42,42,43,43,44,44,45,45,46,46,48,48],"right_children":[2,4,6,8,10,12,14,16,18,20,22,24,26,28,30,-1,32,34,-1,36,38,40,42,44,46,48,50,52,54,56,-1,-1,-1,58,60,62,64,-1,-1,66,-1,68,70,72,74,76,78,-1,80,-1,-1,-1,-1,-1,-1,-1,-1,-1,-1,-1,-1,-1,-1,-1,-1,-1,-1,-1,-1,-1,-1,-1,-1,-1,-1,-1,-1,-1,-1,-1,-1],"split_conditions":[1.44E1,7.3E0,2.34E1,3.2E0,1.07E1,1.85E1,2.88E1,5E-1,4.888889E0,4.888889E0,1.26E1,1.64E1,2.07E1,2.6E1,3.38E1,-3.184076E-2,0E0,5.3E0,-2.8216619E-2,9.3E0,9E0,5.4722223E0,4.0833335E0,4.888889E0,5.4722223E0,5.4722223E0,4.888889E0,4.388889E0,4.888889E0,6.361111E0,4.97392E-2,-3.1989302E-2,-2.4852104E-2,1.3333334E0,1.3333334E0,1.7222222E0,3.2037845E-1,-2.0227764E-2,-1.3930331E-2,1.17E1,-9.640547E-3,1.33E1,1.1111112E0,1.53E1,2.0277777E0,1.74E1,6.8055553E0,1.4183275E-2,2.1944444E0,1.9485708E-2,1.3722521E-2,2.5407394E-2,1.952034E-2,3.1153435E-2,2.4678888E-2,3.9099984E-2,2.955362E-2,-1.9098585E-2,-2.3172773E-2,-1.4661101E-2,-1.8149186E-2,-1.03547275E-2,-1.3652067E-2,-6.589003E-3,-9.536671E-3,-4.1270326E-3,-1.880117E-3,-1.8628074E-4,1.7922613E-3,-6.5436265E-3,-2.3818181E-3,3.9294213E-3,5.9562395E-3,-2.1357727E-3,4.4913913E-4,8.1507005E-3,1.0449054E-2,4.5193178E-3,2.1936276E-5,5.353899E-3,1.0393996E-2],"split_indices":[0,0,0,0,0,0,0,0,3,3,0,0,0,0,0,0,13,0,0,0,0,3,3,3,3,3,3,3,3,3,0,0,0,2,2,2,13,0,0,0,0,0,2,0,2,0,3,0,2,0,0,0,0,0,0,0,0,0,0,0,0,0,0,0,0,0,0,0,0,0,0,0,0,0,0,0,0,0,0,0,0],"split_type":[0,0,0,0,0,0,0,0,0,0,0,0,0,0,0,0,0,0,0,0,0,0,0,0,0,0,0,0,0,0,0,0,0,0,0,0,0,0,0,0,0,0,0,0,0,0,0,0,0,0,0,0,0,0,0,0,0,0,0,0,0,0,0,0,0,0,0,0,0,0,0,0,0,0,0,0,0,0,0,0,0],"sum_hessian":[5.65E3,3.17E3,2.48E3,1.551E3,1.619E3,1.544E3,9.36E2,8.64E2,6.87E2,7.23E2,8.96E2,8.15E2,7.29E2,5.18E2,4.18E2,4.57E2,4.07E2,6.46E2,4.1E1,6.54E2,6.9E1,4.61E2,4.35E2,4.09E2,4.06E2,3.77E2,3.52E2,2.74E2,2.44E2,3.27E2,9.1E1,9.2E1,3.15E2,3.02E2,3.44E2,3.79E2,2.75E2,2.9E1,4E1,4.18E2,4.3E1,3.38E2,9.7E1,3.52E2,5.7E1,3.6E2,4.6E1,3.21E2,5.6E1,2.81E2,7.1E1,2.12E2,6.2E1,1.98E2,4.6E1,2.93E2,3.4E1,2.2E2,8.2E1,2.47E2,9.7E1,2.76E2,1.03E2,2.22E2,5.3E1,2.16E2,2.02E2,1.47E2,1.91E2,2.4E1,7.3E1,1.6E2,1.92E2,2.3E1,3.4E1,1.73E2,1.87E2,2.8E1,1.8E1,1.9E1,3.7E1],"tree_param":{"num_deleted":"0","num_feature":"17","num_nodes":"81","size_leaf_vector":"1"}},{"base_weights":[-1.06883745E-4,-1.3331898E-1,1.7448129E-1,-2.3524526E-1,-6.280124E-2,9.900539E-2,2.990176E-1,-2.7630162E-1,-1.9559026E-1,-1.1099818E-1,-2.0908032E-2,5.85483E-2,1.4076844E-1,2.5073752E-1,3.7759244E-1,-3.0400638E-2,-2.6529193E-1,-2.5342176E-2,-1.8357792E-1,-1.0498804E-1,-1.8813421E-1,-4.265391E-2,-3.3743083E-3,3.868234E-2,7.872811E-2,1.2454019E-1,1.7041564E-1,2.2322081E-1,2.873032E-1,3.5842797E-1,4.522407E-2,-2.9514546E-2,-2.4301186E-2,-2.0573867E-2,-1.6703872E-2,-1.2390216E-1,-8.524292E-2,-2.279931E-2,-1.417623E-2,-3.693872E-2,-1.0274673E-2,3.8353726E-3,-5.186203E-2,4.6480104E-2,-0E0,8.424226E-2,2.0766336E-2,1.29868E-1,6.965864E-2,1.8207716E-2,1.261041E-2,2.341229E-2,1.6913086E-2,2.98282E-2,2.2580188E-2,3.680092E-2,2.887614E-2,-1.4642702E-2,-1.137243E-2,-1.0769351E-2,-7.752318E-3,-5.1254905E-3,-2.9852951E-3,-1.0069507E-3,1.1080997E-3,-4.2908937E-3,-1.1841938E-2,3.4507762E-3,5.41976E-3,1.1710218E-3,-9.409358E-4,7.359902E-3,9.277367E-3,2.619541E-3,-0E0,1.1273662E-2,1.4050769E-2,7.5297505E-3,-0E0],"categories":[],"categories_nodes":[],"categories_segments":[],"categories_sizes":[],"default_left":[0,0,0,0,0,0,0,0,0,0,0,0,0,0,0,0,0,0,0,0,0,0,0,0,0,0,0,0,0,0,0,0,0,0,0,0,0,0,0,0,0,0,0,0,0,0,0,0,0,0,0,0,0,0,0,0,0,0,0,0,0,0,0,0,0,0,0,0,0,0,0,0,0,0,0,0,0,0,0],"id":8,"left_children":[1,3,5,7,9,11,13,15,17,19,21,23,25,27,29,-1,31,-1,33,35,37,39,41,43,45,47,49,51,53,55,-1,-1,-1,-1,-1,57,59,-1,-1,61,-1,63,65,67,69,71,73,75,77,-1,-1,-1,-1,-1,-1,-1,-1,-1,-1,-1,-1,-1,-1,-1,-1,-1,-1,-1,-1,-1,-1,-1,-1,-1,-1,-1,-1,-1,-1],"loss_changes":[1.3102727E2,2.2927032E1,2.2846558E1,2.025055E0,3.8026538E0,2.5400352E0,3.328804E0,5.7022095E-2,3.7452316E-1,3.57975E-1,3.8187748E-1,2.959044E-1,3.0819798E-1,4.613495E-1,2.5325775E-1,0E0,1.8508148E-1,0E0,1.3324356E-1,2.7401543E-1,4.3451786E-2,1.3678491E-1,2.0251484E-1,1.15403116E-1,1.0952115E-1,1.1369133E-1,8.005619E-2,1.1644554E-1,4.2963028E-2,1.6288757E-2,0E0,0E0,0E0,0E0,0E0,5.2014828E-2,4.34947E-2,0E0,0E0,3.2355726E-2,0E0,4.9680755E-2,2.3477986E-2,1.9472837E-2,7.898282E-3,7.951975E-3,5.0613172E-3,3.9399624E-2,2.1408096E-2,0E0,0E0,0E0,0E0,0E0,0E0,0E0,0E0,0E0,0E0,0E0,0E0,0E0,0E0,0E0,0E0,0E0,0E0,0E0,0E0,0E0,0E0,0E0,0E0,0E0,0E0,0E0,0E0,0E0,0E0],"parents":[2147483647,0,0,1,1,2,2,3,3,4,4,5,5,6,6,7,7,8,8,9,9,10,10,11,11,12,12,13,13,14,14,16,16,18,18,19,19,20,20,21,21,22,22,23,23,24,24,25,25,26,26,27,27,28,28,29,29,35,35,36,36,39,39,41,41,42,42,43,43,44,44,45,45,46,46,47,47,48,48],"right_children":[2,4,6,8,10,12,14,16,18,20,22,24,26,28,30,-1,32,-1,34,36,38,40,42,44,46,48,50,52,54,56,-1,-1,-1,-1,-1,58,60,-1,-1,62,-1,64,66,68,70,72,74,76,78,-1,-1,-1,-1,-1,-1,-1,-1,-1,-1,-1,-1,-1,-1,-1,-1,-1,-1,-1,-1,-1,-1,-1,-1,-1,-1,-1,-1,-1,-1],"split_conditions":[1.44E1,6E0,2.34E1,1.8E0,1.03E1,1.84E1,2.98E1,-1.5452367E0,-1.740527E0,5.4722223E0,1.22E1,1.64E1,2.13E1,2.67E1,3.43E1,-3.0400638E-2,-7E-1,-2.5342176E-2,3.7E0,8.3E0,8.5E0,5.4722223E0,5.4722223E0,4.388889E0,5.4722223E0,6.361111E0,4.888889E0,5.4722223E0,5.4722223E0,5.7222223E0,4.522407E-2,-2.9514546E-2,-2.4301186E-2,-2.0573867E-2,-1.6703872E-2,-5.810192E-1,-7.8074765E-1,-2.279931E-2,-1.417623E-2,1.09E1,-1.0274673E-2,1.3E1,1.0305555E1,1.52E1,6.361111E0,1.73E1,6E-2,1.95E1,1.0305555E1,1.8207716E-2,1.261041E-2,2.341229E-2,1.6913086E-2,2.98282E-2,2.2580188E-2,3.680092E-2,2.887614E-2,-1.4642702E-2,-1.137243E-2,-1.0769351E-2,-7.752318E-3,-5.1254905E-3,-2.9852951E-3,-1.0069507E-3,1.1080997E-3,-4.2908937E-3,-1.1841938E-2,3.4507762E-3,5.41976E-3,1.1710218E-3,-9.409358E-4,7.359902E-3,9.277367E-3,2.619541E-3,-0E0,1.1273662E-2,1.4050769E-2,7.5297505E-3,-0E0],"split_indices":[0,0,0,0,0,0,0,14,14,3,0,0,0,0,0,0,0,0,0,0,0,3,3,3,3,3,3,3,3,3,0,0,0,0,0,14,14,0,0,0,0,0,3,0,3,0,6,0,3,0,0,0,0,0,0,0,0,0,0,0,0,0,0,0,0,0,0,0,0,0,0,0,0,0,0,0,0,0,0],"split_type":[0,0,0,0,0,0,0,0,0,0,0,0,0,0,0,0,0,0,0,0,0,0,0,0,0,0,0,0,0,0,0,0,0,0,0,0,0,0,0,0,0,0,0,0,0,0,0,0,0,0,0,0,0,0,0,0,0,0,0,0,0,0,0,0,0,0,0,0,0,0,0,0,0,0,0,0,0,0,0],"sum_hessian":[5.632E3,3.195E3,2.437E3,1.305E3,1.89E3,1.519E3,9.18E2,6.37E2,6.68E2,8.77E2,1.013E3,7.74E2,7.45E2,5.72E2,3.46E2,1.71E2,4.66E2,1.1E2,5.58E2,8.17E2,6E1,4.49E2,5.64E2,3.94E2,3.8E2,4.87E2,2.58E2,3.32E2,2.4E2,2.81E2,6.5E1,1.92E2,2.74E2,2.31E2,3.27E2,4.12E2,4.05E2,2.9E1,3.1E1,4.13E2,3.6E1,4.9E2,7.4E1,3.26E2,6.8E1,3.45E2,3.5E1,4.41E2,4.6E1,2E2,5.8E1,2.72E2,6E1,1.99E2,4.1E1,2.42E2,3.9E1,1.21E2,2.91E2,9.7E1,3.08E2,1.3E2,2.83E2,1.63E2,3.27E2,6.8E1,6E0,1.35E2,1.91E2,3.4E1,3.4E1,1.63E2,1.82E2,2.9E1,6E0,1.77E2,2.64E2,4.3E1,3E0],"tree_param":{"num_deleted":"0","num_feature":"17","num_nodes":"79","size_leaf_vector":"1"}},{"base_weights":[5.395834E-4,-1.08105354E-1,1.4517133E-1,-2.0185131E-1,-4.883951E-2,2.4403724E-1,5.979557E-2,-2.468183E-1,-1.693174E-1,1.5648305E-2,-1.02011815E-1,1.8159312E-1,3.0766594E-1,9.998757E-2,-1.1531983E-3,-1.5750428E-1,-2.5043342E-1,-1.0044956E-1,-2.0535572E-1,-1.6029922E-2,6.1367046E-2,-6.5969564E-2,-1.3386457E-1,1.3721253E-1,2.0767829E-1,3.5368127E-1,2.658841E-1,5.3622182E-2,1.3024628E-1,-2.516104E-2,4.960996E-2,-2.054702E-2,-9.342003E-3,-2.7676508E-2,-2.3873232E-1,-6.3839094E-3,-1.0939359E-1,-2.6586384E-2,-1.9608459E-1,1.3883798E-2,-4.6720836E-2,1.0594356E-1,3.132408E-2,-1.0051685E-1,-2.8092863E-2,-1.6400856E-1,-1.03537805E-1,1.7312604E-1,1.2087421E-1,2.4145244E-2,1.8688926E-1,3.3059396E-2,4.3148536E-2,2.4622254E-2,2.9719396E-2,7.169011E-2,2.5808595E-2,1.0920446E-1,1.565034E-1,-4.6219725E-2,-5.574623E-4,5.6923054E-2,-1.2561064E-3,-2.5100289E-2,-2.101787E-2,-0E0,-2.1652512E-3,-9.077508E-3,-1.3573642E-2,-1.799558E-2,-2.146971E-2,5.0489614E-3,-0E0,-6.6602253E-3,-2.0261456E-3,1.3499448E-2,8.884574E-3,3.7894936E-3,-1.0264523E-3,-1.211832E-2,-7.7861743E-3,-4.6210694E-3,-1.3201301E-3,-1.4628643E-2,-1.868525E-2,-1.7033843E-2,-9.420464E-3,1.792712E-2,4.5988E-3,1.2332733E-2,3.5966307E-4,1.9244587E-2,1.2793586E-2,7.562128E-3,5.563717E-4,3.1704102E-3,-1.6898288E-3,1.2926588E-2,8.864469E-3,1.7167702E-2,1.25765605E-2,-2.5493386E-3,-7.148191E-3,3.563616E-4,-7.5202645E-3,7.4618394E-3,3.784322E-3,6.6286157E-4,-1.980369E-3],"categories":[],"categories_nodes":[],"categories_segments":[],"categories_sizes":[],"default_left":[0,0,0,0,0,0,0,0,0,0,0,0,0,0,0,0,0,0,0,0,0,0,0,0,0,0,0,0,0,0,0,0,0,0,0,0,0,0,0,0,0,0,0,0,0,0,0,0,0,0,0,0,0,0,0,0,0,0,0,0,0,0,0,0,0,0,0,0,0,0,0,0,0,0,0,0,0,0,0,0,0,0,0,0,0,0,0,0,0,0,0,0,0,0,0,0,0,0,0,0,0,0,0,0,0,0,0,0,0],"id":9,"left_children":[1,3,5,7,9,11,13,15,17,19,21,23,25,27,29,31,33,35,37,39,41,43,45,47,49,51,53,55,57,59,61,-1,-1,-1,63,65,67,-1,69,71,73,75,77,79,81,83,85,87,89,-1,91,-1,-1,-1,-1,93,95,97,99,101,103,105,107,-1,-1,-1,-1,-1,-1,-1,-1,-1,-1,-1,-1,-1,-1,-1,-1,-1,-1,-1,-1,-1,-1,-1,-1,-1,-1,-1,-1,-1,-1,-1,-1,-1,-1,-1,-1,-1,-1,-1,-1,-1,-1,-1,-1,-1,-1],"loss_changes":[8.867501E1,1.7866287E1,2.039009E1,1.740902E0,6.785868E0,4.349205E0,3.1969972E0,8.7659836E-2,1.7556E0,1.2988392E0,1.2156668E0,5.9573364E-1,9.072037E-1,1.0759501E0,6.288784E-1,2.4688601E-2,3.5505295E-2,2.0057893E-1,1.6869926E-1,4.8776025E-1,4.74445E-1,6.5428615E-1,4.8008347E-1,7.5828075E-2,1.612978E-1,2.4638367E-1,5.4084778E-2,1.4569306E-1,2.1766949E-1,1.7819254E-1,6.7016244E-2,0E0,0E0,0E0,2.5156021E-2,4.17904E-3,7.783437E-2,0E0,4.7380447E-2,1.3991594E-1,1.277892E-1,3.814149E-2,6.3818544E-2,9.520078E-2,6.0090065E-2,5.4327488E-2,1.3830304E-1,1.8450618E-2,3.0881166E-2,0E0,1.7374516E-2,0E0,0E0,0E0,0E0,4.0072203E-2,3.3992216E-2,7.7288866E-2,4.4743538E-2,8.691552E-2,5.8496587E-2,3.5223186E-2,4.3736296E-3,0E0,0E0,0E0,0E0,0E0,0E0,0E0,0E0,0E0,0E0,0E0,0E0,0E0,0E0,0E0,0E0,0E0,0E0,0E0,0E0,0E0,0E0,0E0,0E0,0E0,0E0,0E0,0E0,0E0,0E0,0E0,0E0,0E0,0E0,0E0,0E0,0E0,0E0,0E0,0E0,0E0,0E0,0E0,0E0,0E0,0E0],"parents":[2147483647,0,0,1,1,2,2,3,3,4,4,5,5,6,6,7,7,8,8,9,9,10,10,11,11,12,12,13,13,14,14,15,15,16,16,17,17,18,18,19,19,20,20,21,21,22,22,23,23,24,24,25,25,26,26,27,27,28,28,29,29,30,30,34,34,35,35,36,36,38,38,39,39,40,40,41,41,42,42,43,43,44,44,45,45,46,46,47,47,48,48,50,50,55,55,56,56,57,57,58,58,59,59,60,60,61,61,62,62],"right_children":[2,4,6,8,10,12,14,16,18,20,22,24,26,28,30,32,34,36,38,40,42,44,46,48,50,52,54,56,58,60,62,-1,-1,-1,64,66,68,-1,70,72,74,76,78,80,82,84,86,88,90,-1,92,-1,-1,-1,-1,94,96,98,100,102,104,106,108,-1,-1,-1,-1,-1,-1,-1,-1,-1,-1,-1,-1,-1,-1,-1,-1,-1,-1,-1,-1,-1,-1,-1,-1,-1,-1,-1,-1,-1,-1,-1,-1,-1,-1,-1,-1,-1,-1,-1,-1,-1,-1,-1,-1,-1,-1],"split_conditions":[7.126E0,-5.68E-1,4.892E1,-3.842E0,5.971E1,1.3746E1,7.648E1,4.42E1,6.547E1,3.492E0,7.545E1,1.0472E1,2.44E1,1.0378E1,1.2636E1,-6.218E0,-9.3880314E-1,3.646E1,0E0,4.675E1,3.916E1,3.492E0,3.28E0,3.297E1,3.135E1,1.8634E1,1.5908E1,6.428E1,1.3176E1,9.97E0,4.388889E0,-2.054702E-2,-9.342003E-3,-2.7676508E-2,1.1E1,3.179E1,5.821E1,-2.6586384E-2,8.009E1,3.297E1,1.686E0,2.767E1,5.4722223E0,1.686E0,5.148E0,8.449E1,-1.2424006E0,6.8055553E0,8.222222E0,2.4145244E-2,6.361111E0,3.3059396E-2,4.3148536E-2,2.4622254E-2,2.9719396E-2,6.361111E0,5.7222223E0,5.998E1,6.579E1,9.018E1,2.5E-1,8.817E1,5.7222223E0,-2.5100289E-2,-2.101787E-2,-0E0,-2.1652512E-3,-9.077508E-3,-1.3573642E-2,-1.799558E-2,-2.146971E-2,5.0489614E-3,-0E0,-6.6602253E-3,-2.0261456E-3,1.3499448E-2,8.884574E-3,3.7894936E-3,-1.0264523E-3,-1.211832E-2,-7.7861743E-3,-4.6210694E-3,-1.3201301E-3,-1.4628643E-2,-1.868525E-2,-1.7033843E-2,-9.420464E-3,1.792712E-2,4.5988E-3,1.2332733E-2,3.5966307E-4,1.9244587E-2,1.2793586E-2,7.562128E-3,5.563717E-4,3.1704102E-3,-1.6898288E-3,1.2926588E-2,8.864469E-3,1.7167702E-2,1.25765605E-2,-2.5493386E-3,-7.148191E-3,3.563616E-4,-7.5202645E-3,7.4618394E-3,3.784322E-3,6.6286157E-4,-1.980369E-3],"split_indices":[9,9,1,9,1,9,1,1,1,9,1,9,1,9,9,9,13,1,13,1,1,9,9,1,1,9,9,1,9,9,3,0,0,0,11,1,1,0,1,1,9,1,3,9,9,1,14,3,3,0,3,0,0,0,0,3,3,1,1,1,6,1,3,0,0,0,0,0,0,0,0,0,0,0,0,0,0,0,0,0,0,0,0,0,0,0,0,0,0,0,0,0,0,0,0,0,0,0,0,0,0,0,0,0,0,0,0,0,0],"split_type":[0,0,0,0,0,0,0,0,0,0,0,0,0,0,0,0,0,0,0,0,0,0,0,0,0,0,0,0,0,0,0,0,0,0,0,0,0,0,0,0,0,0,0,0,0,0,0,0,0,0,0,0,0,0,0,0,0,0,0,0,0,0,0,0,0,0,0,0,0,0,0,0,0,0,0,0,0,0,0,0,0,0,0,0,0,0,0,0,0,0,0,0,0,0,0,0,0,0,0,0,0,0,0,0,0,0,0,0,0],"sum_hessian":[5.641E3,3.221E3,2.42E3,1.246E3,1.975E3,1.12E3,1.3E3,5.19E2,7.27E2,8.92E2,1.083E3,5.68E2,5.52E2,7.84E2,5.16E2,2.3E1,4.96E2,2.52E2,4.75E2,5.26E2,3.66E2,5.11E2,5.72E2,2.14E2,3.54E2,2.58E2,2.94E2,3.12E2,4.72E2,3.52E2,1.64E2,1.1E1,1.2E1,1.43E2,3.53E2,2.3E1,2.29E2,5.8E1,4.17E2,2.65E2,2.61E2,1.45E2,2.21E2,2.65E2,2.46E2,2.83E2,2.89E2,6.2E1,1.52E2,1.29E2,2.25E2,2.04E2,5.4E1,1.88E2,1.06E2,1.86E2,1.26E2,2.67E2,2.05E2,1.87E2,1.65E2,1.45E2,1.9E1,2.39E2,1.14E2,1.3E1,1E1,1.39E2,9E1,2.32E2,1.85E2,7.4E1,1.91E2,1.46E2,1.15E2,4.9E1,9.6E1,1.93E2,2.8E1,1.34E2,1.31E2,1.07E2,1.39E2,1.66E2,1.17E2,3.2E1,2.57E2,5.8E1,4E0,1.48E2,4E0,2.02E2,2.3E1,1.74E2,1.2E1,1.13E2,1.3E1,1.3E2,1.37E2,1.32E2,7.3E1,1.06E2,8.1E1,1.56E2,9E0,7.1E1,7.4E1,1E1,9E0],"tree_param":{"num_deleted":"0","num_feature":"17","num_nodes":"109","size_leaf_vector":"1"}},{"base_weights":[-7.7974284E-5,-1.094423E-1,1.426895E-1,-1.9021682E-1,-5.107651E-2,8.7221324E-2,2.5727367E-1,-2.2403534E-1,-1.5796085E-1,-9.260085E-2,-2.0837775E-2,5.0225094E-2,1.24673784E-1,2.2228746E-1,3.243246E-1,-2.5279257E-2,-2.1459009E-1,-2.0410831E-1,-1.4510573E-1,-1.3568364E-1,-8.595734E-2,-3.8633782E-2,-6.4507034E-3,3.237094E-2,6.615208E-2,1.068723E-1,1.5162268E-1,1.988838E-2,2.4713999E-2,3.0902935E-2,3.9616056E-2,-2.4387352E-2,-1.9843511E-2,-2.2244712E-2,-1.6071303E-2,-1.6057443E-2,-1.3051385E-2,-1.6018644E-2,-1.0646717E-2,-1.0293635E-2,-7.4927054E-2,-3.709579E-2,-1.1050828E-2,-1.7356988E-2,2.2028129E-4,3.3217534E-2,-1.0962941E-3,6.6672534E-2,-0E0,9.218E-2,1.1365321E-1,1.3250614E-2,1.6003374E-2,-8.042189E-3,-6.108895E-3,-4.7345767E-3,-3.0553525E-3,-1.5513531E-3,-4.9789282E-3,1.4335042E-4,-5.533653E-3,2.6354024E-3,4.2781453E-3,5.795499E-3,7.5342483E-3,9.301685E-3,1.0242615E-3,1.1479184E-2,4.9555968E-3],"categories":[],"categories_nodes":[],"categories_segments":[],"categories_sizes":[],"default_left":[0,0,0,0,0,0,0,0,0,0,0,0,0,0,0,0,0,0,0,0,0,0,0,0,0,0,0,0,0,0,0,0,0,0,0,0,0,0,0,0,0,0,0,0,0,0,0,0,0,0,0,0,0,0,0,0,0,0,0,0,0,0,0,0,0,0,0,0,0],"id":10,"left_children":[1,3,5,7,9,11,13,15,17,19,21,23,25,27,29,-1,31,33,35,37,39,41,43,45,47,49,51,-1,-1,-1,-1,-1,-1,-1,-1,-1,-1,-1,-1,-1,53,55,-1,57,59,61,-1,63,-1,65,67,-1,-1,-1,-1,-1,-1,-1,-1,-1,-1,-1,-1,-1,-1,-1,-1,-1,-1],"loss_changes":[8.676184E1,1.4802586E1,1.5260525E1,1.3652458E0,2.2832994E0,2.2292347E0,1.7147446E0,7.285309E-2,3.3885765E-1,1.8627644E-1,2.668928E-1,2.2146821E-1,3.446083E-1,2.0869827E-1,9.9321365E-2,0E0,1.3965225E-1,4.0531635E-2,7.1144104E-2,2.7152538E-2,1.0016823E-1,3.3205807E-2,4.4716094E-2,1.6970664E-2,1.6389608E-2,1.7857075E-2,3.4999847E-4,0E0,0E0,0E0,0E0,0E0,0E0,0E0,0E0,0E0,0E0,0E0,0E0,0E0,1.2415886E-2,2.1878362E-2,0E0,6.4484477E-3,1.9088836E-2,1.7362475E-2,0E0,1.4576793E-2,0E0,3.516674E-5,1.742363E-3,0E0,0E0,0E0,0E0,0E0,0E0,0E0,0E0,0E0,0E0,0E0,0E0,0E0,0E0,0E0,0E0,0E0,0E0],"parents":[2147483647,0,0,1,1,2,2,3,3,4,4,5,5,6,6,7,7,8,8,9,9,10,10,11,11,12,12,13,13,14,14,16,16,17,17,18,18,19,19,20,20,21,21,22,22,23,23,24,24,25,25,26,26,40,40,41,41,43,43,44,44,45,45,47,47,49,49,50,50],"right_children":[2,4,6,8,10,12,14,16,18,20,22,24,26,28,30,-1,32,34,36,38,40,42,44,46,48,50,52,-1,-1,-1,-1,-1,-1,-1,-1,-1,-1,-1,-1,-1,54,56,-1,58,60,62,-1,64,-1,66,68,-1,-1,-1,-1,-1,-1,-1,-1,-1,-1,-1,-1,-1,-1,-1,-1,-1,-1],"split_conditions":[1.44E1,6.1E0,2.46E1,1.8E0,1E1,1.87E1,3.08E1,-1.4936621E0,-1.5452367E0,-1.3201191E0,1.2E1,1.64E1,2.19E1,2.77E1,3.53E1,-2.5279257E-2,-8E-1,2.198673E0,4.1E0,5.9693294E0,7.7E0,5.6E-1,1.29E1,6E-2,1.53E0,1.97E1,2.26E1,1.988838E-2,2.4713999E-2,3.0902935E-2,3.9616056E-2,-2.4387352E-2,-1.9843511E-2,-2.2244712E-2,-1.6071303E-2,-1.6057443E-2,-1.3051385E-2,-1.6018644E-2,-1.0646717E-2,-1.0293635E-2,9.3E0,1.08E1,-1.1050828E-2,1E-2,2.18E0,1.56E1,-1.0962941E-3,1.76E1,-0E0,6E-2,4E-2,1.3250614E-2,1.6003374E-2,-8.042189E-3,-6.108895E-3,-4.7345767E-3,-3.0553525E-3,-1.5513531E-3,-4.9789282E-3,1.4335042E-4,-5.533653E-3,2.6354024E-3,4.2781453E-3,5.795499E-3,7.5342483E-3,9.301685E-3,1.0242615E-3,1.1479184E-2,4.9555968E-3],"split_indices":[0,0,0,0,0,0,0,13,14,14,0,0,0,0,0,0,0,13,0,13,0,6,0,6,6,0,0,0,0,0,0,0,0,0,0,0,0,0,0,0,0,0,0,6,6,0,0,0,0,6,6,0,0,0,0,0,0,0,0,0,0,0,0,0,0,0,0,0,0],"split_type":[0,0,0,0,0,0,0,0,0,0,0,0,0,0,0,0,0,0,0,0,0,0,0,0,0,0,0,0,0,0,0,0,0,0,0,0,0,0,0,0,0,0,0,0,0,0,0,0,0,0,0,0,0,0,0,0,0,0,0,0,0,0,0,0,0,0,0,0,0],"sum_hessian":[5.555E3,3.146E3,2.409E3,1.318E3,1.828E3,1.625E3,7.84E2,6.39E2,6.79E2,7.68E2,1.06E3,8.2E2,8.05E2,5.19E2,2.65E2,1.49E2,4.9E2,1.43E2,5.36E2,9.8E1,6.7E2,4.7E2,5.9E2,3.91E2,4.29E2,4.9E2,3.15E2,2.74E2,2.45E2,2.24E2,4.1E1,1.67E2,3.23E2,9.6E1,4.7E1,2.52E2,2.84E2,4.9E1,4.9E1,2.57E2,4.13E2,4.63E2,7E0,2.29E2,3.61E2,3.86E2,5E0,4.26E2,3E0,1.64E2,3.26E2,1.05E2,2.1E2,2.87E2,1.26E2,1.72E2,2.91E2,2.21E2,8E0,3.56E2,5E0,2.33E2,1.53E2,2.22E2,2.04E2,1.61E2,3E0,3.18E2,8E0],"tree_param":{"num_deleted":"0","num_feature":"17","num_nodes":"69","size_leaf_vector":"1"}},{"base_weights":[1.1889851E-3,-9.927086E-2,1.3005687E-1,-1.657969E-1,-4.008773E-2,8.0844395E-2,2.3223026E-1,-1.925471E-1,-1.24504514E-1,-7.530513E-2,-1.6087988E-2,4.920554E-2,1.1801939E-1,2.0274484E-1,2.9838678E-1,-2.112306E-2,-1.7526554E-1,-1.1922067E-1,-1.9655209E-2,-6.575708E-2,-1.152129E-1,-7.348891E-3,-4.838552E-2,3.3438917E-2,6.560925E-2,1.0273432E-1,1.4401715E-1,1.8148978E-1,2.2553325E-1,2.856658E-1,3.9286945E-2,-2.0938326E-2,-1.5898688E-2,-1.3211194E-1,-1.0332287E-1,-8.846846E-2,-5.8831267E-2,-1.00086726E-1,-1.6831918E-2,-1.9674923E-2,1.096172E-2,-6.9343515E-2,-3.3402193E-2,3.9161727E-2,1.6296082E-3,7.2870955E-2,2.733052E-2,1.1142392E-1,6.559259E-2,1.5089332E-2,8.969781E-3,1.9384125E-2,1.4669882E-2,2.3561096E-2,1.7135413E-2,3.0056817E-2,2.4550179E-2,-1.2290215E-2,-1.5331658E-2,-9.505069E-3,-1.2104814E-2,-9.982374E-3,-6.6799424E-3,-6.8232785E-3,-4.5152367E-3,-1.0887807E-2,-6.281161E-3,-2.5960684E-3,-9.800716E-4,5.2625634E-4,2.233271E-3,-4.7088224E-3,-8.85541E-3,-2.7266254E-3,-9.185247E-3,3.057738E-3,4.886395E-3,1.2527452E-3,-4.5908304E-4,6.480264E-3,8.213551E-3,6.49161E-4,4.186033E-3,1.0130112E-2,1.2229672E-2,7.1763033E-3,2.0821344E-3],"categories":[],"categories_nodes":[],"categories_segments":[],"categories_sizes":[],"default_left":[0,0,0,0,0,0,0,0,0,0,0,0,0,0,0,0,0,0,0,0,0,0,0,0,0,0,0,0,0,0,0,0,0,0,0,0,0,0,0,0,0,0,0,0,0,0,0,0,0,0,0,0,0,0,0,0,0,0,0,0,0,0,0,0,0,0,0,0,0,0,0,0,0,0,0,0,0,0,0,0,0,0,0,0,0,0,0],"id":11,"left_children":[1,3,5,7,9,11,13,15,17,19,21,23,25,27,29,-1,31,33,-1,35,37,39,41,43,45,47,49,51,53,55,-1,-1,-1,57,59,61,63,65,-1,67,69,71,73,75,77,79,81,83,85,-1,-1,-1,-1,-1,-1,-1,-1,-1,-1,-1,-1,-1,-1,-1,-1,-1,-1,-1,-1,-1,-1,-1,-1,-1,-1,-1,-1,-1,-1,-1,-1,-1,-1,-1,-1,-1,-1],"loss_changes":[7.209958E1,1.2292324E1,1.2218735E1,1.5702629E0,1.391005E0,1.9169807E0,1.4343109E0,2.11689E-1,1.669321E-1,2.2962451E-1,2.732175E-1,2.191174E-1,2.6094627E-1,1.857357E-1,1.0957718E-1,0E0,1.9146442E-1,7.490921E-2,0E0,6.579089E-2,5.752802E-2,1.775822E-1,5.2725434E-2,7.977688E-2,1.0862672E-1,1.3055372E-1,6.5121174E-2,6.3417435E-2,6.089115E-2,1.4877319E-3,0E0,0E0,0E0,1.1145592E-2,3.9811134E-3,6.688535E-3,4.0107965E-2,9.417534E-3,0E0,2.5402933E-2,1.734212E-2,1.7751485E-2,3.0773237E-2,2.2877157E-2,5.867586E-3,7.0427656E-3,1.6996399E-2,7.846355E-3,1.576817E-2,0E0,0E0,0E0,0E0,0E0,0E0,0E0,0E0,0E0,0E0,0E0,0E0,0E0,0E0,0E0,0E0,0E0,0E0,0E0,0E0,0E0,0E0,0E0,0E0,0E0,0E0,0E0,0E0,0E0,0E0,0E0,0E0,0E0,0E0,0E0,0E0,0E0,0E0],"parents":[2147483647,0,0,1,1,2,2,3,3,4,4,5,5,6,6,7,7,8,8,9,9,10,10,11,11,12,12,13,13,14,14,16,16,17,17,19,19,20,20,21,21,22,22,23,23,24,24,25,25,26,26,27,27,28,28,29,29,33,33,34,34,35,35,36,36,37,37,39,39,40,40,41,41,42,42,43,43,44,44,45,45,46,46,47,47,48,48],"right_children":[2,4,6,8,10,12,14,16,18,20,22,24,26,28,30,-1,32,34,-1,36,38,40,42,44,46,48,50,52,54,56,-1,-1,-1,58,60,62,64,66,-1,68,70,72,74,76,78,80,82,84,86,-1,-1,-1,-1,-1,-1,-1,-1,-1,-1,-1,-1,-1,-1,-1,-1,-1,-1,-1,-1,-1,-1,-1,-1,-1,-1,-1,-1,-1,-1,-1,-1,-1,-1,-1,-1,-1,-1],"split_conditions":[1.46E1,6.9E0,2.48E1,3.3E0,1.03E1,1.92E1,3.11E1,3E-1,4.888889E0,4.0833335E0,4.0833335E0,1.69E1,2.24E1,2.79E1,3.7E1,-2.112306E-2,-1.184093E0,5.3E0,-1.9655209E-2,-7.8074765E-1,6.8055553E0,1.28E1,1.22E1,4.388889E0,4.388889E0,4.888889E0,6.361111E0,4.0833335E0,5.4722223E0,4.0833335E0,3.9286945E-2,-2.0938326E-2,-1.5898688E-2,3.2037845E-1,3.2037845E-1,7.5972857E0,8.9E0,9.6E0,-1.6831918E-2,1.18E1,1.39E1,5.4722223E0,1.0305555E1,1.58E1,5.7222223E0,1.81E1,1.8E1,2.08E1,8.222222E0,1.5089332E-2,8.969781E-3,1.9384125E-2,1.4669882E-2,2.3561096E-2,1.7135413E-2,3.0056817E-2,2.4550179E-2,-1.2290215E-2,-1.5331658E-2,-9.505069E-3,-1.2104814E-2,-9.982374E-3,-6.6799424E-3,-6.8232785E-3,-4.5152367E-3,-1.0887807E-2,-6.281161E-3,-2.5960684E-3,-9.800716E-4,5.2625634E-4,2.233271E-3,-4.7088224E-3,-8.85541E-3,-2.7266254E-3,-9.185247E-3,3.057738E-3,4.886395E-3,1.2527452E-3,-4.5908304E-4,6.480264E-3,8.213551E-3,6.49161E-4,4.186033E-3,1.0130112E-2,1.2229672E-2,7.1763033E-3,2.0821344E-3],"split_indices":[0,0,0,0,0,0,0,0,3,3,3,0,0,0,0,0,14,0,0,14,3,0,0,3,3,3,3,3,3,3,0,0,0,13,13,13,0,0,0,0,0,3,3,0,3,0,0,0,3,0,0,0,0,0,0,0,0,0,0,0,0,0,0,0,0,0,0,0,0,0,0,0,0,0,0,0,0,0,0,0,0,0,0,0,0,0,0],"split_type":[0,0,0,0,0,0,0,0,0,0,0,0,0,0,0,0,0,0,0,0,0,0,0,0,0,0,0,0,0,0,0,0,0,0,0,0,0,0,0,0,0,0,0,0,0,0,0,0,0,0,0,0,0,0,0,0,0,0,0,0,0,0,0,0,0,0,0,0,0,0,0,0,0,0,0,0,0,0,0,0,0,0,0,0,0,0,0],"sum_hessian":[5.567E3,3.128E3,2.439E3,1.471E3,1.657E3,1.648E3,7.91E2,8.89E2,5.82E2,6.69E2,9.88E2,8.93E2,7.55E2,5.51E2,2.4E2,4.19E2,4.7E2,5.46E2,3.6E1,5.44E2,1.25E2,7.81E2,2.07E2,4.6E2,4.33E2,4.81E2,2.74E2,2.92E2,2.59E2,2.16E2,2.4E1,1.46E2,3.24E2,2.94E2,2.52E2,1.21E2,4.23E2,1.01E2,2.4E1,4.7E2,3.11E2,8.2E1,1.25E2,3.87E2,7.3E1,3.61E2,7.2E1,3.86E2,9.5E1,2.4E2,3.4E1,2.1E2,8.2E1,2.14E2,4.5E1,1.51E2,6.5E1,2.13E2,8.1E1,1.8E2,7.2E1,7.4E1,4.7E1,2.44E2,1.79E2,7.8E1,2.3E1,2.8E2,1.9E2,2.14E2,9.7E1,4.2E1,4E1,1.16E2,9E0,2.13E2,1.74E2,3.2E1,4.1E1,2.03E2,1.58E2,3.3E1,3.9E1,2.1E2,1.76E2,8.1E1,1.4E1],"tree_param":{"num_deleted":"0","num_feature":"17","num_nodes":"87","size_leaf_vector":"1"}},{"base_weights":[-3.063344E-5,-9.171293E-2,1.1192148E-1,-1.5673216E-1,-4.5416478E-2,6.915498E-2,2.1269828E-1,-1.8346442E-1,-1.3146298E-1,-7.842051E-2,-1.8636806E-2,4.064416E-2,1.0642942E-1,1.8613867E-1,2.7248383E-1,-2.0660244E-2,-1.7606166E-1,-1.6761833E-1,-1.2013604E-1,-7.099283E-2,-1.2541476E-1,-1.4216101E-2,-6.872863E-2,2.1986632E-2,5.5123128E-2,9.166511E-2,1.2882285E-1,1.6470897E-1,2.0394427E-1,2.5966275E-1,3.622045E-2,-1.9946363E-2,-1.625758E-2,-1.5785314E-1,-2.2707466E-2,-1.331826E-2,-1.0958867E-1,-8.638441E-2,-6.1152495E-2,-1.0985109E-2,-1.9071003E-2,-2.9991642E-2,-2.8156405E-3,-8.128934E-2,-3.9375585E-2,2.8259298E-2,-1.0133217E-2,6.1962474E-2,2.5360717E-2,9.987479E-2,5.4872423E-2,1.3595031E-1,7.942202E-2,1.7132394E-2,1.0585473E-2,2.1401418E-2,1.6264383E-2,2.758236E-2,2.1561643E-2,-1.6947614E-2,-1.2293045E-2,-1.0646037E-2,-1.6108591E-2,-7.924112E-3,-1.0465316E-2,-7.944195E-3,-5.486384E-3,-2.6591595E-3,-4.7966633E-3,-9.943688E-4,5.337163E-4,-5.354663E-3,-9.799748E-3,-0E0,-4.397051E-3,2.1611466E-3,3.332562E-3,-2.5606488E-3,-1.0213986E-5,5.210674E-3,7.0427875E-3,-4.506693E-5,3.874537E-3,8.737678E-3,1.0614989E-2,3.2144052E-3,6.571264E-3,2.924698E-3,1.3669588E-2,1.1623829E-3,8.362121E-3],"categories":[],"categories_nodes":[],"categories_segments":[],"categories_sizes":[],"default_left":[0,0,0,0,0,0,0,0,0,0,0,0,0,0,0,0,0,0,0,0,0,0,0,0,0,0,0,0,0,0,0,0,0,0,0,0,0,0,0,0,0,0,0,0,0,0,0,0,0,0,0,0,0,0,0,0,0,0,0,0,0,0,0,0,0,0,0,0,0,0,0,0,0,0,0,0,0,0,0,0,0,0,0,0,0,0,0,0,0,0,0],"id":12,"left_children":[1,3,5,7,9,11,13,15,17,19,21,23,25,27,29,-1,31,33,35,37,39,41,43,45,47,49,51,53,55,57,-1,-1,-1,59,-1,-1,61,63,65,-1,-1,67,69,71,73,75,77,79,81,83,85,87,89,-1,-1,-1,-1,-1,-1,-1,-1,-1,-1,-1,-1,-1,-1,-1,-1,-1,-1,-1,-1,-1,-1,-1,-1,-1,-1,-1,-1,-1,-1,-1,-1,-1,-1,-1,-1,-1,-1],"loss_changes":[5.7640755E1,9.268038E0,1.0852461E1,8.1105995E-1,1.5850425E0,1.8694286E0,1.0975075E0,3.138542E-2,2.2342396E-1,2.531457E-1,2.121697E-1,2.639202E-1,2.200613E-1,1.2986565E-1,1.0603523E-1,0E0,8.253765E-2,1.5075684E-2,3.1582355E-2,8.6135864E-2,5.773127E-2,1.6245507E-1,1.385963E-2,9.195773E-2,1.04704976E-1,1.2070942E-1,7.329607E-2,4.9919605E-2,4.3976784E-2,3.65963E-2,0E0,0E0,0E0,5.534649E-3,0E0,0E0,3.2980442E-3,8.161068E-3,3.2242894E-2,0E0,0E0,1.4676034E-2,3.1895053E-2,3.7016273E-3,4.922908E-3,6.449789E-3,8.446686E-3,2.2122145E-2,4.1849338E-2,1.1742115E-3,1.0276318E-2,1.1920929E-5,1.4607608E-3,0E0,0E0,0E0,0E0,0E0,0E0,0E0,0E0,0E0,0E0,0E0,0E0,0E0,0E0,0E0,0E0,0E0,0E0,0E0,0E0,0E0,0E0,0E0,0E0,0E0,0E0,0E0,0E0,0E0,0E0,0E0,0E0,0E0,0E0,0E0,0E0,0E0,0E0],"parents":[2147483647,0,0,1,1,2,2,3,3,4,4,5,5,6,6,7,7,8,8,9,9,10,10,11,11,12,12,13,13,14,14,16,16,17,17,18,18,19,19,20,20,21,21,22,22,23,23,24,24,25,25,26,26,27,27,28,28,29,29,33,33,36,36,37,37,38,38,41,41,42,42,43,43,44,44,45,45,46,46,47,47,48,48,49,49,50,50,51,51,52,52],"right_children":[2,4,6,8,10,12,14,16,18,20,22,24,26,28,30,-1,32,34,36,38,40,42,44,46,48,50,52,54,56,58,-1,-1,-1,60,-1,-1,62,64,66,-1,-1,68,70,72,74,76,78,80,82,84,86,88,90,-1,-1,-1,-1,-1,-1,-1,-1,-1,-1,-1,-1,-1,-1,-1,-1,-1,-1,-1,-1,-1,-1,-1,-1,-1,-1,-1,-1,-1,-1,-1,-1,-1,-1,-1,-1,-1,-1],"split_conditions":[1.41E1,5.9E0,2.5E1,1.6E0,9.9E0,1.92E1,3.15E1,-1.4936621E0,-1.4936621E0,4.388889E0,5.7222223E0,1.62E1,2.23E1,2.77E1,3.7E1,-2.0660244E-2,-9E-1,6.361111E0,3.7E0,7.5E0,8.194445E0,1.17E1,3.0277777E0,4.888889E0,4.388889E0,4.888889E0,6.361111E0,5.7222223E0,4.888889E0,4.388889E0,3.622045E-2,-1.9946363E-2,-1.625758E-2,2.198673E0,-2.2707466E-2,-1.331826E-2,4.388889E0,1.3333334E0,-8.945426E-1,-1.0985109E-2,-1.9071003E-2,4.0833335E0,1.3E1,6.8055553E0,6.361111E0,1.51E1,1.9722222E0,1.76E1,1.5833334E0,2.02E1,2.1944444E0,3.611111E-1,1.1388888E0,1.7132394E-2,1.0585473E-2,2.1401418E-2,1.6264383E-2,2.758236E-2,2.1561643E-2,-1.6947614E-2,-1.2293045E-2,-1.0646037E-2,-1.6108591E-2,-7.924112E-3,-1.0465316E-2,-7.944195E-3,-5.486384E-3,-2.6591595E-3,-4.7966633E-3,-9.943688E-4,5.337163E-4,-5.354663E-3,-9.799748E-3,-0E0,-4.397051E-3,2.1611466E-3,3.332562E-3,-2.5606488E-3,-1.0213986E-5,5.210674E-3,7.0427875E-3,-4.506693E-5,3.874537E-3,8.737678E-3,1.0614989E-2,3.2144052E-3,6.571264E-3,2.924698E-3,1.3669588E-2,1.1623829E-3,8.362121E-3],"split_indices":[0,0,0,0,0,0,0,13,14,3,3,0,0,0,0,0,0,3,0,0,3,0,2,3,3,3,3,3,3,3,0,0,0,13,0,0,3,2,14,0,0,3,0,3,3,0,2,0,2,0,2,2,2,0,0,0,0,0,0,0,0,0,0,0,0,0,0,0,0,0,0,0,0,0,0,0,0,0,0,0,0,0,0,0,0,0,0,0,0,0,0],"split_type":[0,0,0,0,0,0,0,0,0,0,0,0,0,0,0,0,0,0,0,0,0,0,0,0,0,0,0,0,0,0,0,0,0,0,0,0,0,0,0,0,0,0,0,0,0,0,0,0,0,0,0,0,0,0,0,0,0,0,0,0,0,0,0,0,0,0,0,0,0,0,0,0,0,0,0,0,0,0,0,0,0,0,0,0,0,0,0,0,0,0,0],"sum_hessian":[5.614E3,3.087E3,2.527E3,1.282E3,1.805E3,1.776E3,7.51E2,6.18E2,6.64E2,8.06E2,9.99E2,1.009E3,7.67E2,5.24E2,2.27E2,1.4E2,4.78E2,1.53E2,5.11E2,7E2,1.06E2,9.21E2,7.8E1,4.45E2,5.64E2,4.68E2,2.99E2,2.45E2,2.79E2,2.03E2,2.4E1,1.67E2,3.11E2,1.36E2,1.7E1,2.19E2,2.92E2,2.66E2,4.34E2,8.9E1,1.7E1,3.82E2,5.39E2,5.1E1,2.7E1,3.75E2,7E1,4.55E2,1.09E2,3.79E2,8.9E1,2.58E2,4.1E1,2.17E2,2.8E1,2.19E2,6E1,1.43E2,6E1,9.7E1,3.9E1,2.8E2,1.2E1,1.99E2,6.7E1,1.04E2,3.3E2,3.28E2,5.4E1,2.94E2,2.45E2,2.3E1,2.8E1,3E0,2.4E1,1.73E2,2.02E2,2.3E1,4.7E1,2.19E2,2.36E2,3.5E1,7.4E1,1.37E2,2.42E2,3.3E1,5.6E1,3E0,2.55E2,4E0,3.7E1],"tree_param":{"num_deleted":"0","num_feature":"17","num_nodes":"91","size_leaf_vector":"1"}},{"base_weights":[2.0472732E-4,-7.7756405E-2,1.09180175E-1,-1.3208748E-1,-2.8407622E-2,6.7151874E-2,1.8957879E-1,-1.568915E-1,-9.998165E-2,-5.484743E-2,-7.804836E-3,4.029225E-2,9.2642196E-2,1.6321297E-1,2.3824845E-1,-1.669758E-1,-1.353757E-1,-8.996923E-2,-1.20373435E-1,-6.6474415E-2,-4.126665E-2,-1.819861E-2,3.5408651E-3,2.8941853E-2,5.151033E-2,8.1019044E-2,1.1370867E-2,1.3636029E-2,1.7504595E-2,2.2911467E-2,3.1446893E-2,-1.8807799E-2,-1.6006638E-1,-1.2181701E-2,-1.6514745E-2,-1.0029231E-2,-7.596782E-3,-1.0941132E-1,-1.4365025E-2,-6.1548683E-3,-1.0163359E-2,-3.8709432E-2,-8.964201E-3,-2.587901E-2,-1.3220997E-2,5.0459746E-3,-6.1331396E-3,2.9885108E-2,-0E0,5.2902833E-2,1.3273427E-2,8.18638E-2,3.0454544E-3,-1.4726544E-2,-1.8316455E-2,-1.2554546E-2,-9.402282E-3,-4.6127317E-3,-3.3456886E-3,-2.4185982E-3,-6.4361133E-3,-1.2148044E-3,-3.5267745E-3,-0E0,1.3357861E-3,2.3921577E-3,3.6579445E-3,5.906509E-4,-9.575143E-4,4.51923E-3,5.813873E-3,2.8746089E-3,-0E0,7.170014E-3,8.717134E-3],"categories":[],"categories_nodes":[],"categories_segments":[],"categories_sizes":[],"default_left":[0,0,0,0,0,0,0,0,0,0,0,0,0,0,0,0,0,0,0,0,0,0,0,0,0,0,0,0,0,0,0,0,0,0,0,0,0,0,0,0,0,0,0,0,0,0,0,0,0,0,0,0,0,0,0,0,0,0,0,0,0,0,0,0,0,0,0,0,0,0,0,0,0,0,0],"id":13,"left_children":[1,3,5,7,9,11,13,15,17,19,21,23,25,27,29,31,33,35,37,39,41,43,45,47,49,51,-1,-1,-1,-1,-1,-1,53,-1,-1,-1,-1,55,-1,-1,-1,57,-1,59,61,63,-1,65,67,69,71,73,-1,-1,-1,-1,-1,-1,-1,-1,-1,-1,-1,-1,-1,-1,-1,-1,-1,-1,-1,-1,-1,-1,-1],"loss_changes":[4.778379E1,8.769081E0,7.888769E0,1.2001419E0,9.302486E-1,1.0394049E0,9.5267296E-1,1.3722801E-1,1.0778904E-1,1.0506821E-1,1.1591712E-1,8.65978E-2,1.6450834E-1,1.121254E-1,6.7827225E-2,2.0957947E-2,6.744099E-2,4.210925E-2,1.4857531E-2,4.6527147E-2,2.736324E-2,1.5283406E-2,3.959527E-2,1.1372417E-2,1.2593806E-2,8.272886E-3,0E0,0E0,0E0,0E0,0E0,0E0,7.422066E-2,0E0,0E0,0E0,0E0,4.9706697E-3,0E0,0E0,0E0,3.7066936E-3,0E0,2.0977259E-3,2.3996308E-3,2.0073785E-2,0E0,7.885873E-3,8.5110444E-4,1.4925003E-3,5.2682506E-3,5.050659E-3,0E0,0E0,0E0,0E0,0E0,0E0,0E0,0E0,0E0,0E0,0E0,0E0,0E0,0E0,0E0,0E0,0E0,0E0,0E0,0E0,0E0,0E0,0E0],"parents":[2147483647,0,0,1,1,2,2,3,3,4,4,5,5,6,6,7,7,8,8,9,9,10,10,11,11,12,12,13,13,14,14,15,15,16,16,17,17,18,18,19,19,20,20,21,21,22,22,23,23,24,24,25,25,32,32,37,37,41,41,43,43,44,44,45,45,47,47,48,48,49,49,50,50,51,51],"right_children":[2,4,6,8,10,12,14,16,18,20,22,24,26,28,30,32,34,36,38,40,42,44,46,48,50,52,-1,-1,-1,-1,-1,-1,54,-1,-1,-1,-1,56,-1,-1,-1,58,-1,60,62,64,-1,66,68,70,72,74,-1,-1,-1,-1,-1,-1,-1,-1,-1,-1,-1,-1,-1,-1,-1,-1,-1,-1,-1,-1,-1,-1,-1],"split_conditions":[1.49E1,7.3E0,2.46E1,3.2E0,1.08E1,1.88E1,3.08E1,1.4E0,1.3055556E0,9.2E0,1.29E1,1.69E1,2.21E1,2.64E1,3.7E1,-1.3E0,1.3055556E0,5.6E0,2.4166667E0,2.6666667E0,1E-2,1.16E1,2.18E0,3E-2,5E-2,4E-2,1.1370867E-2,1.3636029E-2,1.7504595E-2,2.2911467E-2,3.1446893E-2,-1.8807799E-2,1.3333334E0,-1.2181701E-2,-1.6514745E-2,-1.0029231E-2,-7.596782E-3,5.3E0,-1.4365025E-2,-6.1548683E-3,-1.0163359E-2,9.8E0,-8.964201E-3,4.8E-1,6E-2,1.4E1,-6.1331396E-3,1.59E1,1E1,1.77E1,1.6E1,2E1,3.0454544E-3,-1.4726544E-2,-1.8316455E-2,-1.2554546E-2,-9.402282E-3,-4.6127317E-3,-3.3456886E-3,-2.4185982E-3,-6.4361133E-3,-1.2148044E-3,-3.5267745E-3,-0E0,1.3357861E-3,2.3921577E-3,3.6579445E-3,5.906509E-4,-9.575143E-4,4.51923E-3,5.813873E-3,2.8746089E-3,-0E0,7.170014E-3,8.717134E-3],"split_indices":[0,0,0,0,0,0,0,0,2,0,0,0,0,0,0,0,2,0,2,2,6,0,6,6,6,6,0,0,0,0,0,0,2,0,0,0,0,0,0,0,0,0,0,6,6,0,0,0,11,0,11,0,0,0,0,0,0,0,0,0,0,0,0,0,0,0,0,0,0,0,0,0,0,0,0],"split_type":[0,0,0,0,0,0,0,0,0,0,0,0,0,0,0,0,0,0,0,0,0,0,0,0,0,0,0,0,0,0,0,0,0,0,0,0,0,0,0,0,0,0,0,0,0,0,0,0,0,0,0,0,0,0,0,0,0,0,0,0,0,0,0,0,0,0,0,0,0,0,0,0,0,0,0],"sum_hessian":[5.622E3,3.277E3,2.345E3,1.558E3,1.719E3,1.542E3,8.03E2,8.75E2,6.83E2,7.5E2,9.69E2,7.54E2,7.88E2,5.25E2,2.78E2,5.88E2,2.87E2,4.65E2,2.18E2,3.98E2,3.52E2,5.1E2,4.59E2,3.81E2,3.73E2,5.14E2,2.74E2,1.67E2,3.58E2,2.53E2,2.5E1,1.35E2,4.53E2,2.03E2,8.4E1,2.6E2,2.05E2,1.55E2,6.3E1,3.54E2,4.4E1,3.38E2,1.4E1,1.91E2,3.19E2,4.51E2,8E0,3.7E2,1.1E1,3.57E2,1.6E1,5.03E2,1.1E1,2.99E2,1.54E2,6.9E1,8.6E1,1.29E2,2.09E2,1.87E2,4E0,3.1E2,9E0,2.75E2,1.76E2,2.06E2,1.64E2,5E0,6E0,1.56E2,2.01E2,9E0,7E0,1.84E2,3.19E2],"tree_param":{"num_deleted":"0","num_feature":"17","num_nodes":"75","size_leaf_vector":"1"}},{"base_weights":[-2.4492573E-4,-7.4533395E-2,9.267218E-2,-1.1996029E-1,-2.9226579E-2,5.6813795E-2,1.7216104E-1,-1.4113696E-1,-9.032628E-2,-5.092109E-2,-1.1748077E-2,3.0717123E-2,8.26393E-2,1.5141098E-1,2.2235802E-1,-1.5858812E-2,-1.3171864E-1,-8.599801E-2,-1.7764188E-2,-4.6243206E-2,-9.744973E-2,-6.6529717E-3,-5.2946214E-2,3.6290415E-2,-0E0,6.75827E-2,9.826481E-2,1.3401754E-1,1.6753832E-1,2.1058954E-1,3.0361155E-2,-1.1780776E-2,-1.5865559E-2,-9.543655E-2,-7.305598E-2,-5.211801E-2,-3.08891E-3,-7.254481E-2,-1.1743332E-2,-1.3248156E-2,4.796977E-3,-7.4522607E-3,-3.781088E-2,2.4344472E-2,4.7518674E-2,-1.6251612E-2,8.719644E-3,7.066919E-2,1.5189992E-2,1.06566325E-1,6.2069938E-2,1.4148555E-2,1.0258414E-2,1.7596552E-2,1.2511921E-2,2.2509605E-2,1.730574E-2,-8.863545E-3,-1.0989791E-2,-6.667558E-3,-8.669525E-3,-4.5493715E-3,-6.2607913E-3,-7.870899E-3,-1.604855E-3,-1.9515654E-3,-7.8102795E-4,7.1409467E-4,-6.658965E-4,-2.6109645E-3,-7.0414604E-3,1.9903914E-3,2.8758545E-3,3.9714538E-3,5.2086096E-3,-2.1427209E-3,-0E0,3.3847352E-3,-5.25695E-4,7.347058E-3,5.1996703E-3,1.9885818E-3,-0E0,9.583479E-3,1.1625993E-2,3.156272E-3,7.1571656E-3],"categories":[],"categories_nodes":[],"categories_segments":[],"categories_sizes":[],"default_left":[0,0,0,0,0,0,0,0,0,0,0,0,0,0,0,0,0,0,0,0,0,0,0,0,0,0,0,0,0,0,0,0,0,0,0,0,0,0,0,0,0,0,0,0,0,0,0,0,0,0,0,0,0,0,0,0,0,0,0,0,0,0,0,0,0,0,0,0,0,0,0,0,0,0,0,0,0,0,0,0,0,0,0,0,0,0,0],"id":14,"left_children":[1,3,5,7,9,11,13,15,17,19,21,23,25,27,29,-1,31,33,-1,35,37,39,41,43,45,47,49,51,53,55,-1,-1,-1,57,59,61,-1,63,-1,65,67,-1,69,71,73,75,77,79,81,83,85,-1,-1,-1,-1,-1,-1,-1,-1,-1,-1,-1,-1,-1,-1,-1,-1,-1,-1,-1,-1,-1,-1,-1,-1,-1,-1,-1,-1,-1,-1,-1,-1,-1,-1,-1,-1],"loss_changes":[3.895686E1,6.4379864E0,7.1131306E0,9.462185E-1,5.89597E-1,1.1520758E0,7.393112E-1,9.9487305E-2,2.0665598E-1,1.332655E-1,1.7735808E-1,1.514538E-1,1.8075132E-1,1.03074074E-1,9.883785E-2,0E0,1.7849255E-1,5.3013325E-2,0E0,4.7728658E-2,2.842009E-3,5.996103E-2,1.6646087E-2,9.0109885E-2,1.9440383E-2,6.278658E-2,1.02719784E-1,2.5633812E-2,4.8324585E-2,3.0122757E-2,0E0,0E0,0E0,5.4192543E-3,2.7270317E-3,1.802826E-2,0E0,4.0517747E-4,0E0,1.4224082E-2,7.641267E-3,0E0,1.1399306E-2,1.6568899E-3,2.0468235E-3,3.7818905E-3,3.183535E-2,5.6550503E-3,3.0300934E-3,2.8102398E-3,1.1486888E-2,0E0,0E0,0E0,0E0,0E0,0E0,0E0,0E0,0E0,0E0,0E0,0E0,0E0,0E0,0E0,0E0,0E0,0E0,0E0,0E0,0E0,0E0,0E0,0E0,0E0,0E0,0E0,0E0,0E0,0E0,0E0,0E0,0E0,0E0,0E0,0E0],"parents":[2147483647,0,0,1,1,2,2,3,3,4,4,5,5,6,6,7,7,8,8,9,9,10,10,11,11,12,12,13,13,14,14,16,16,17,17,19,19,20,20,21,21,22,22,23,23,24,24,25,25,26,26,27,27,28,28,29,29,33,33,34,34,35,35,37,37,39,39,40,40,42,42,43,43,44,44,45,45,46,46,47,47,48,48,49,49,50,50],"right_children":[2,4,6,8,10,12,14,16,18,20,22,24,26,28,30,-1,32,34,-1,36,38,40,42,44,46,48,50,52,54,56,-1,-1,-1,58,60,62,-1,64,-1,66,68,-1,70,72,74,76,78,80,82,84,86,-1,-1,-1,-1,-1,-1,-1,-1,-1,-1,-1,-1,-1,-1,-1,-1,-1,-1,-1,-1,-1,-1,-1,-1,-1,-1,-1,-1,-1,-1,-1,-1,-1,-1,-1,-1],"split_conditions":[1.42E1,7.3E0,2.48E1,3.3E0,1.06E1,1.85E1,3.15E1,-3E-1,5.7222223E0,4.888889E0,5.4722223E0,4.888889E0,2.13E1,2.79E1,3.7E1,-1.5858812E-2,1.3611112E0,5.7E0,-1.7764188E-2,9.6E0,6.361111E0,1.29E1,1.3333334E0,1.62E1,2.0277777E0,6.8055553E0,4.888889E0,4.388889E0,5.4722223E0,4.0833335E0,3.0361155E-2,-1.1780776E-2,-1.5865559E-2,1.3333334E0,1.3333334E0,1.3333334E0,-3.08891E-3,3.25E0,-1.1743332E-2,1.16E1,3.6111112E0,-7.4522607E-3,9.305555E0,1.53E1,1.71E1,1.72E1,6.361111E0,4.5833335E0,9.416667E0,2.28E1,1.8611112E0,1.4148555E-2,1.0258414E-2,1.7596552E-2,1.2511921E-2,2.2509605E-2,1.730574E-2,-8.863545E-3,-1.0989791E-2,-6.667558E-3,-8.669525E-3,-4.5493715E-3,-6.2607913E-3,-7.870899E-3,-1.604855E-3,-1.9515654E-3,-7.8102795E-4,7.1409467E-4,-6.658965E-4,-2.6109645E-3,-7.0414604E-3,1.9903914E-3,2.8758545E-3,3.9714538E-3,5.2086096E-3,-2.1427209E-3,-0E0,3.3847352E-3,-5.25695E-4,7.347058E-3,5.1996703E-3,1.9885818E-3,-0E0,9.583479E-3,1.1625993E-2,3.156272E-3,7.1571656E-3],"split_indices":[0,0,0,0,0,0,0,0,3,3,3,3,0,0,0,0,2,0,0,0,3,0,2,0,2,3,3,3,3,3,0,0,0,2,2,2,0,2,0,0,3,0,3,0,0,0,3,3,3,0,2,0,0,0,0,0,0,0,0,0,0,0,0,0,0,0,0,0,0,0,0,0,0,0,0,0,0,0,0,0,0,0,0,0,0,0,0],"split_type":[0,0,0,0,0,0,0,0,0,0,0,0,0,0,0,0,0,0,0,0,0,0,0,0,0,0,0,0,0,0,0,0,0,0,0,0,0,0,0,0,0,0,0,0,0,0,0,0,0,0,0,0,0,0,0,0,0,0,0,0,0,0,0,0,0,0,0,0,0,0,0,0,0,0,0,0,0,0,0,0,0,0,0,0,0,0,0],"sum_hessian":[5.642E3,3.136E3,2.506E3,1.564E3,1.572E3,1.729E3,7.77E2,9.08E2,6.56E2,6.98E2,8.74E2,8.63E2,8.66E2,5.54E2,2.23E2,3.09E2,5.99E2,6.28E2,2.8E1,6.38E2,6E1,7.81E2,9.3E1,7.33E2,1.3E2,4.47E2,4.19E2,2.74E2,2.8E2,1.99E2,2.4E1,4.01E2,1.98E2,3.55E2,2.73E2,4.55E2,1.83E2,3.1E1,2.9E1,5.01E2,2.8E2,3.4E1,5.9E1,3.61E2,3.72E2,4.9E1,8.1E1,4.2E2,2.7E1,3.37E2,8.2E1,2.16E2,5.8E1,2.29E2,5.1E1,1.38E2,6.1E1,2.51E2,1.04E2,1.95E2,7.8E1,2.88E2,1.67E2,2.6E1,5E0,2.23E2,2.78E2,2.4E2,4E1,4.7E1,1.2E1,1.94E2,1.67E2,1.49E2,2.23E2,3.6E1,1.3E1,3.1E1,5E1,3.58E2,6.2E1,2.3E1,4E0,1.7E2,1.67E2,2.3E1,5.9E1],"tree_param":{"num_deleted":"0","num_feature":"17","num_nodes":"87","size_leaf_vector":"1"}},{"base_weights":[-1.4524331E-3,-6.636414E-2,8.413945E-2,-1.1415893E-1,-3.044622E-2,4.571799E-2,1.4309585E-1,-1.3485871E-1,-9.5755585E-2,-5.555124E-2,-1.2814199E-2,2.5904324E-2,6.397811E-2,1.23099305E-1,1.9578777E-1,-1.5619022E-2,-1.2986065E-1,-9.154359E-2,-1.6912673E-2,-4.8978426E-2,-8.8652685E-2,-6.654518E-3,-3.6842257E-2,3.137106E-2,-1.2618789E-3,6.9709174E-2,3.6315657E-2,1.0417816E-1,1.4089969E-1,1.8567018E-1,2.6583118E-2,-1.48857E-2,-1.2077475E-2,-1.02914736E-1,-7.968599E-2,-5.908274E-2,-4.055114E-2,-7.803955E-3,-1.3890273E-2,-1.7413553E-2,3.354416E-3,-2.9337263E-2,-6.553814E-3,2.197122E-2,4.0295324E-3,1.3531338E-3,-1.7042076E-2,5.7841586E-3,8.172168E-3,4.136774E-2,1.9780286E-4,1.133779E-2,7.909539E-2,1.51619185E-2,1.1264672E-1,1.8738529E-2,5.101393E-3,-1.2216383E-2,-9.535485E-3,-9.363904E-3,-7.381485E-3,-7.3858546E-3,-5.3944443E-3,-5.1763253E-3,-3.3757903E-3,-2.341652E-3,-1.2354938E-3,-1.6625367E-4,1.0118698E-3,-4.6377135E-3,-1.7140178E-3,1.623462E-3,2.499052E-3,-0E0,8.689711E-4,-0E0,-2.4437048E-3,4.2102127E-3,-0E0,-0E0,1.4304955E-3,8.510943E-3,4.208255E-3,1.2283475E-2,7.739899E-3],"categories":[],"categories_nodes":[],"categories_segments":[],"categories_sizes":[],"default_left":[0,0,0,0,0,0,0,0,0,0,0,0,0,0,0,0,0,0,0,0,0,0,0,0,0,0,0,0,0,0,0,0,0,0,0,0,0,0,0,0,0,0,0,0,0,0,0,0,0,0,0,0,0,0,0,0,0,0,0,0,0,0,0,0,0,0,0,0,0,0,0,0,0,0,0,0,0,0,0,0,0,0,0,0,0],"id":15,"left_children":[1,3,5,7,9,11,13,15,17,19,21,23,25,27,29,-1,31,33,-1,35,37,39,41,43,45,47,49,51,53,55,-1,-1,-1,57,59,61,63,-1,-1,65,67,69,-1,71,-1,73,75,-1,-1,77,79,-1,81,-1,83,-1,-1,-1,-1,-1,-1,-1,-1,-1,-1,-1,-1,-1,-1,-1,-1,-1,-1,-1,-1,-1,-1,-1,-1,-1,-1,-1,-1,-1,-1],"loss_changes":[3.103915E1,5.437703E0,5.431423E0,4.82872E-1,7.9675066E-1,5.1794434E-1,9.439297E-1,1.8919945E-2,1.8312168E-1,1.444192E-1,1.5391867E-1,1.07750446E-1,1.0687733E-1,1.9388103E-1,8.8329315E-2,0E0,4.5672417E-2,6.670952E-2,0E0,4.1116238E-2,3.1463087E-2,9.375164E-2,3.489265E-2,4.2381108E-2,6.378743E-3,7.01313E-2,2.0468771E-2,5.070305E-2,6.279755E-2,1.9718647E-2,0E0,0E0,0E0,1.6804218E-2,4.769087E-3,4.3419003E-3,1.6434968E-2,0E0,0E0,8.826807E-3,1.5794313E-2,2.9224798E-2,0E0,5.813241E-4,0E0,1.7138344E-3,4.9567046E-3,0E0,0E0,1.7929226E-3,1.4316398E-3,0E0,5.513549E-3,0E0,7.457018E-3,0E0,0E0,0E0,0E0,0E0,0E0,0E0,0E0,0E0,0E0,0E0,0E0,0E0,0E0,0E0,0E0,0E0,0E0,0E0,0E0,0E0,0E0,0E0,0E0,0E0,0E0,0E0,0E0,0E0,0E0],"parents":[2147483647,0,0,1,1,2,2,3,3,4,4,5,5,6,6,7,7,8,8,9,9,10,10,11,11,12,12,13,13,14,14,16,16,17,17,19,19,20,20,21,21,22,22,23,23,24,24,25,25,26,26,27,27,28,28,29,29,33,33,34,34,35,35,36,36,39,39,40,40,41,41,43,43,45,45,46,46,49,49,50,50,52,52,54,54],"right_children":[2,4,6,8,10,12,14,16,18,20,22,24,26,28,30,-1,32,34,-1,36,38,40,42,44,46,48,50,52,54,56,-1,-1,-1,58,60,62,64,-1,-1,66,68,70,-1,72,-1,74,76,-1,-1,78,80,-1,82,-1,84,-1,-1,-1,-1,-1,-1,-1,-1,-1,-1,-1,-1,-1,-1,-1,-1,-1,-1,-1,-1,-1,-1,-1,-1,-1,-1,-1,-1,-1,-1],"split_conditions":[1.44E1,6.1E0,2.3E1,1.6E0,9.9E0,1.8E1,3.08E1,-1.6E0,5.4722223E0,4.0833335E0,4.0833335E0,4.388889E0,4.888889E0,2.64E1,3.7E1,-1.5619022E-2,-1.4936621E0,3.9E0,-1.6912673E-2,8E0,8.194445E0,1.21E1,7.6944447E0,1.61E1,8.194445E0,2.02E1,8.222222E0,4.0833335E0,4.0833335E0,8.194445E0,2.6583118E-2,-1.48857E-2,-1.2077475E-2,-9.766603E-1,-9.766603E-1,-6.980253E-1,-3.7333682E-1,-7.803955E-3,-1.3890273E-2,1.09E1,1.33E1,1.17E1,-6.553814E-3,1.51E1,4.0295324E-3,1.69E1,3.468E1,5.7841586E-3,8.172168E-3,7.694E1,1.3478E1,1.133779E-2,8.194445E0,1.51619185E-2,1.9E1,1.8738529E-2,5.101393E-3,-1.2216383E-2,-9.535485E-3,-9.363904E-3,-7.381485E-3,-7.3858546E-3,-5.3944443E-3,-5.1763253E-3,-3.3757903E-3,-2.341652E-3,-1.2354938E-3,-1.6625367E-4,1.0118698E-3,-4.6377135E-3,-1.7140178E-3,1.623462E-3,2.499052E-3,-0E0,8.689711E-4,-0E0,-2.4437048E-3,4.2102127E-3,-0E0,-0E0,1.4304955E-3,8.510943E-3,4.208255E-3,1.2283475E-2,7.739899E-3],"split_indices":[0,0,0,0,0,0,0,0,3,3,3,3,3,0,0,0,14,0,0,0,3,0,3,0,3,0,3,3,3,3,0,0,0,14,14,14,14,0,0,0,0,0,0,0,0,0,1,0,0,1,9,0,3,0,11,0,0,0,0,0,0,0,0,0,0,0,0,0,0,0,0,0,0,0,0,0,0,0,0,0,0,0,0,0,0],"split_type":[0,0,0,0,0,0,0,0,0,0,0,0,0,0,0,0,0,0,0,0,0,0,0,0,0,0,0,0,0,0,0,0,0,0,0,0,0,0,0,0,0,0,0,0,0,0,0,0,0,0,0,0,0,0,0,0,0,0,0,0,0,0,0,0,0,0,0,0,0,0,0,0,0,0,0,0,0,0,0,0,0,0,0,0,0],"sum_hessian":[5.585E3,3.177E3,2.408E3,1.361E3,1.816E3,1.46E3,9.48E2,6.35E2,7.26E2,7.46E2,1.07E3,7.04E2,7.56E2,6.91E2,2.57E2,1.11E2,5.24E2,6.9E2,3.6E1,6.27E2,1.19E2,8.56E2,2.14E2,5.89E2,1.15E2,6.22E2,1.34E2,3.41E2,3.5E2,2.29E2,2.8E1,1.61E2,3.63E2,3.44E2,3.46E2,2.77E2,3.5E2,1.02E2,1.7E1,4.17E2,4.39E2,1.74E2,4E1,2.94E2,2.95E2,9.4E1,2.1E1,3.2E2,3.02E2,1.15E2,1.9E1,2.44E2,9.7E1,2.48E2,1.02E2,2.25E2,4E0,8.9E1,2.55E2,9.3E1,2.53E2,6.3E1,2.14E2,1.24E2,2.26E2,1.8E2,2.37E2,2.44E2,1.95E2,6.8E1,1.06E2,1.15E2,1.79E2,7E1,2.4E1,3E0,1.8E1,1.12E2,3E0,1.3E1,6E0,8E1,1.7E1,7.5E1,2.7E1],"tree_param":{"num_deleted":"0","num_feature":"17","num_nodes":"85","size_leaf_vector":"1"}},{"base_weights":[2.4630118E-4,-5.2902892E-2,6.813731E-2,-8.964547E-2,-2.0298013E-2,1.15281224E-1,2.299266E-2,-1.1183502E-1,-6.740966E-2,9.685549E-3,-5.143917E-2,7.799692E-2,1.4163655E-1,4.1845474E-2,-4.5271143E-3,-1.27065955E-2,-9.907134E-2,-2.9559117E-2,-8.3011396E-2,3.5362758E-2,-2.8363862E-3,-3.666179E-2,-6.7861766E-2,9.9292606E-2,6.735792E-2,1.276994E-1,1.8424487E-1,1.4826424E-2,5.5206105E-2,-2.2725657E-2,1.6517667E-2,-6.42299E-2,-1.1301837E-2,-1.052759E-2,-3.7703644E-2,-6.438442E-2,-9.459743E-2,1.5927656E-2,4.513714E-2,-1.8199125E-2,6.6134753E-3,-5.3930666E-2,-2.0008067E-2,-6.3467056E-2,-1.4813924E-2,1.02433026E-1,2.341297E-3,6.891709E-2,-0E0,1.4150284E-1,1.04368486E-1,2.3457577E-2,1.7097506E-1,2.0776546E-2,-3.7097808E-3,4.724814E-2,8.0790045E-3,-1.4167442E-2,-5.841172E-2,2.045446E-2,-2.652338E-2,-2.250568E-3,-6.9421153E-3,-0E0,-1.5373981E-3,-2.4668227E-3,-4.2441473E-3,-5.902784E-3,-8.8708615E-3,-8.521779E-3,-1.077027E-2,2.0218492E-3,-0E0,4.841897E-3,6.808227E-4,-3.1491587E-4,-2.6335444E-3,1.0943646E-3,-1.4452301E-3,-4.7762846E-3,-8.169365E-3,-8.0530375E-4,-2.542463E-3,-8.322341E-3,-5.5485335E-3,1.3527745E-2,9.487043E-3,5.601486E-3,8.022788E-3,1.4387998E-2,6.477728E-3,1.0515088E-2,1.3765745E-3,1.7440198E-2,2.42535E-3,2.9460795E-3,4.1428834E-4,-1.3598683E-3,-0E0,5.004521E-3,-0E0,-4.2279865E-4,-2.4530143E-3,-4.0587175E-4,-6.205751E-3,8.267224E-4,3.2085453E-3,-0E0,-4.2945514E-3],"categories":[],"categories_nodes":[],"categories_segments":[],"categories_sizes":[],"default_left":[0,0,0,0,0,0,0,0,0,0,0,0,0,0,0,0,0,0,0,0,0,0,0,0,0,0,0,0,0,0,0,0,0,0,0,0,0,0,0,0,0,0,0,0,0,0,0,0,0,0,0,0,0,0,0,0,0,0,0,0,0,0,0,0,0,0,0,0,0,0,0,0,0,0,0,0,0,0,0,0,0,0,0,0,0,0,0,0,0,0,0,0,0,0,0,0,0,0,0,0,0,0,0,0,0,0,0,0,0],"id":16,"left_children":[1,3,5,7,9,11,13,15,17,19,21,23,25,27,29,-1,31,33,35,37,39,41,43,45,47,49,51,53,55,57,59,61,-1,63,65,67,69,71,73,75,77,79,81,83,-1,85,-1,87,-1,89,91,-1,93,95,97,99,-1,101,103,105,107,-1,-1,-1,-1,-1,-1,-1,-1,-1,-1,-1,-1,-1,-1,-1,-1,-1,-1,-1,-1,-1,-1,-1,-1,-1,-1,-1,-1,-1,-1,-1,-1,-1,-1,-1,-1,-1,-1,-1,-1,-1,-1,-1,-1,-1,-1,-1,-1],"loss_changes":[2.0226337E1,3.7524605E0,5.223387E0,7.027979E-1,1.5621232E0,1.1491051E0,6.57641E-1,1.07684135E-1,4.2446566E-1,2.7633053E-1,1.8605971E-1,9.038234E-2,3.621521E-1,2.6292193E-1,1.9670118E-1,0E0,1.7327738E-1,2.8880551E-2,9.088135E-2,4.6555072E-2,8.3883926E-2,1.1720437E-1,1.0491097E-1,2.3620725E-2,3.4457684E-2,1.32617E-1,3.2209873E-2,2.9577505E-2,8.497357E-2,7.651283E-2,3.9754905E-2,1.5453696E-2,0E0,5.130819E-3,1.5060157E-3,6.960988E-3,1.0496378E-2,8.4052365E-3,1.7167002E-2,2.4030335E-2,3.1642515E-2,1.9283473E-2,1.1146903E-2,3.938353E-2,0E0,2.4033785E-3,0E0,3.0477881E-2,0E0,3.000164E-2,1.1925697E-3,0E0,4.579401E-2,2.4685495E-2,3.0851848E-3,4.9945116E-2,0E0,2.0401388E-2,3.2426417E-3,2.6600905E-2,7.624671E-3,0E0,0E0,0E0,0E0,0E0,0E0,0E0,0E0,0E0,0E0,0E0,0E0,0E0,0E0,0E0,0E0,0E0,0E0,0E0,0E0,0E0,0E0,0E0,0E0,0E0,0E0,0E0,0E0,0E0,0E0,0E0,0E0,0E0,0E0,0E0,0E0,0E0,0E0,0E0,0E0,0E0,0E0,0E0,0E0,0E0,0E0,0E0,0E0],"parents":[2147483647,0,0,1,1,2,2,3,3,4,4,5,5,6,6,7,7,8,8,9,9,10,10,11,11,12,12,13,13,14,14,16,16,17,17,18,18,19,19,20,20,21,21,22,22,23,23,24,24,25,25,26,26,27,27,28,28,29,29,30,30,31,31,33,33,34,34,35,35,36,36,37,37,38,38,39,39,40,40,41,41,42,42,43,43,45,45,47,47,49,49,50,50,52,52,53,53,54,54,55,55,57,57,58,58,59,59,60,60],"right_children":[2,4,6,8,10,12,14,16,18,20,22,24,26,28,30,-1,32,34,36,38,40,42,44,46,48,50,52,54,56,58,60,62,-1,64,66,68,70,72,74,76,78,80,82,84,-1,86,-1,88,-1,90,92,-1,94,96,98,100,-1,102,104,106,108,-1,-1,-1,-1,-1,-1,-1,-1,-1,-1,-1,-1,-1,-1,-1,-1,-1,-1,-1,-1,-1,-1,-1,-1,-1,-1,-1,-1,-1,-1,-1,-1,-1,-1,-1,-1,-1,-1,-1,-1,-1,-1,-1,-1,-1,-1,-1,-1],"split_conditions":[6.83E0,4.46E-1,5.203E1,-2.364E0,6.282E1,1.282E1,7.842E1,-5.426E0,5.696E1,3.996E1,7.941E1,3.325E1,1.6904E1,9.564E0,1.1032E1,-1.27065955E-2,6.599E1,4.355E1,7.26E1,2.752E0,2.656E0,3.492E0,6.8055553E0,6.8055553E0,8.222222E0,3.434E1,1.467E1,4.388889E0,1.3854E1,3.2222223E0,4E-1,3.747E1,-1.1301837E-2,3.297E1,4.924E1,4.0833335E0,8.569E1,4.388889E0,5.7222223E0,4.954E1,4.888889E0,4.388889E0,6.803E1,2.272E0,-1.4813924E-2,1.848E1,2.341297E-3,9.97E0,-0E0,8.194445E0,9.305555E0,2.3457577E-2,9.305555E0,6.782E1,4E0,6.8055553E0,8.0790045E-3,9.018E1,8.036E1,1.3398E1,5.7222223E0,-2.250568E-3,-6.9421153E-3,-0E0,-1.5373981E-3,-2.4668227E-3,-4.2441473E-3,-5.902784E-3,-8.8708615E-3,-8.521779E-3,-1.077027E-2,2.0218492E-3,-0E0,4.841897E-3,6.808227E-4,-3.1491587E-4,-2.6335444E-3,1.0943646E-3,-1.4452301E-3,-4.7762846E-3,-8.169365E-3,-8.0530375E-4,-2.542463E-3,-8.322341E-3,-5.5485335E-3,1.3527745E-2,9.487043E-3,5.601486E-3,8.022788E-3,1.4387998E-2,6.477728E-3,1.0515088E-2,1.3765745E-3,1.7440198E-2,2.42535E-3,2.9460795E-3,4.1428834E-4,-1.3598683E-3,-0E0,5.004521E-3,-0E0,-4.2279865E-4,-2.4530143E-3,-4.0587175E-4,-6.205751E-3,8.267224E-4,3.2085453E-3,-0E0,-4.2945514E-3],"split_indices":[9,9,1,9,1,9,1,9,1,1,1,1,9,9,9,0,1,1,1,9,9,9,3,3,3,1,1,3,9,3,6,1,0,1,1,3,1,3,3,1,3,3,1,9,0,1,0,9,0,3,3,0,3,1,11,3,0,1,1,9,3,0,0,0,0,0,0,0,0,0,0,0,0,0,0,0,0,0,0,0,0,0,0,0,0,0,0,0,0,0,0,0,0,0,0,0,0,0,0,0,0,0,0,0,0,0,0,0,0],"split_type":[0,0,0,0,0,0,0,0,0,0,0,0,0,0,0,0,0,0,0,0,0,0,0,0,0,0,0,0,0,0,0,0,0,0,0,0,0,0,0,0,0,0,0,0,0,0,0,0,0,0,0,0,0,0,0,0,0,0,0,0,0,0,0,0,0,0,0,0,0,0,0,0,0,0,0,0,0,0,0,0,0,0,0,0,0,0,0,0,0,0,0,0,0,0,0,0,0,0,0,0,0,0,0,0,0,0,0,0,0],"sum_hessian":[5.603E3,3.142E3,2.461E3,1.475E3,1.667E3,1.202E3,1.259E3,7.34E2,7.41E2,8.48E2,8.19E2,5.01E2,7.01E2,7.49E2,5.1E2,3.27E2,4.07E2,2.19E2,5.22E2,2.8E2,5.68E2,4.36E2,3.83E2,1.61E2,3.4E2,5.33E2,1.68E2,2.51E2,4.98E2,2.76E2,2.34E2,1.2E2,2.87E2,7E1,1.49E2,2.06E2,3.16E2,9.8E1,1.82E2,2.2E2,3.48E2,2.1E2,2.26E2,3.66E2,1.7E1,1.53E2,8E0,3.32E2,8E0,3.29E2,2.04E2,3E1,1.38E2,1.94E2,5.7E1,3.85E2,1.13E2,2.26E2,5E1,2.17E2,1.7E1,1.6E1,1.04E2,1.6E1,5.4E1,4.7E1,1.02E2,1.75E2,3.1E1,1.93E2,1.23E2,8.1E1,1.7E1,1.65E2,1.7E1,8.2E1,1.38E2,2.93E2,5.5E1,1.77E2,3.3E1,7.7E1,1.49E2,9.9E1,2.67E2,2.3E1,1.3E2,1.62E2,1.7E2,3.17E2,1.2E1,2.01E2,3E0,1.34E2,4E0,1.23E2,7.1E1,2E1,3.7E1,3.63E2,2.2E1,1.21E2,1.05E2,5E0,4.5E1,1.11E2,1.06E2,7E0,1E1],"tree_param":{"num_deleted":"0","num_feature":"17","num_nodes":"109","size_leaf_vector":"1"}},{"base_weights":[-7.1381335E-5,-5.1044222E-2,7.229094E-2,-8.6924896E-2,-1.764168E-2,4.5768585E-2,1.2738557E-1,-1.0403666E-1,-6.7056455E-2,-3.2066062E-2,-2.7665442E-3,3.06102E-2,6.7804486E-2,1.1173297E-1,1.6723687E-2,-1.2395601E-2,-9.765743E-2,-1.1262803E-2,-6.354759E-2,-4.089092E-2,-2.2848327E-2,-8.148052E-3,5.72764E-3,2.1424871E-2,3.9611433E-2,5.952926E-3,7.9238586E-2,9.98437E-3,1.251844E-2,-1.1642443E-2,-8.60482E-3,-7.0984356E-2,-5.5242635E-2,-6.555649E-3,-3.6831822E-3,-2.1684686E-2,-6.8437913E-3,-7.369172E-3,-3.0265214E-2,6.41001E-3,-5.930363E-3,2.2391327E-2,-8.4577175E-4,4.045298E-2,2.769831E-3,-0E0,7.986633E-3,-8.413795E-3,-6.5813335E-3,-5.026726E-3,-6.5382347E-3,-2.028459E-3,-3.1659123E-3,-9.768202E-4,-2.4285582E-4,-0E0,-4.159211E-3,2.8938343E-4,7.9379603E-4,-0E0,-1.3355744E-3,1.5178618E-3,2.4752137E-3,-9.1369165E-4,-0E0,3.4029267E-3,4.472212E-3,-0E0,1.0003112E-3],"categories":[],"categories_nodes":[],"categories_segments":[],"categories_sizes":[],"default_left":[0,0,0,0,0,0,0,0,0,0,0,0,0,0,0,0,0,0,0,0,0,0,0,0,0,0,0,0,0,0,0,0,0,0,0,0,0,0,0,0,0,0,0,0,0,0,0,0,0,0,0,0,0,0,0,0,0,0,0,0,0,0,0,0,0,0,0,0,0],"id":17,"left_children":[1,3,5,7,9,11,13,15,17,19,21,23,25,27,-1,-1,29,-1,31,33,35,37,39,41,43,-1,45,-1,-1,-1,-1,47,49,-1,-1,51,-1,53,55,57,59,61,63,65,67,-1,-1,-1,-1,-1,-1,-1,-1,-1,-1,-1,-1,-1,-1,-1,-1,-1,-1,-1,-1,-1,-1,-1,-1],"loss_changes":[2.0487566E1,3.8951378E0,3.3303986E0,5.0968933E-1,3.5925686E-1,5.0649524E-1,4.1750717E-1,7.234573E-2,9.227562E-2,6.2241912E-2,3.854925E-2,6.9443405E-2,4.0922165E-2,5.119896E-2,0E0,0E0,1.10043526E-1,0E0,2.5701284E-2,3.039825E-2,1.2102917E-2,4.9713776E-3,2.615693E-3,1.21819675E-2,9.827495E-3,0E0,6.4327717E-3,0E0,0E0,0E0,0E0,3.3416748E-3,1.9983053E-3,0E0,0E0,1.4841557E-5,0E0,4.777763E-3,1.9314466E-3,5.539637E-4,8.969392E-4,3.2937378E-3,5.729374E-4,2.8613806E-3,7.931528E-4,0E0,0E0,0E0,0E0,0E0,0E0,0E0,0E0,0E0,0E0,0E0,0E0,0E0,0E0,0E0,0E0,0E0,0E0,0E0,0E0,0E0,0E0,0E0,0E0],"parents":[2147483647,0,0,1,1,2,2,3,3,4,4,5,5,6,6,7,7,8,8,9,9,10,10,11,11,12,12,13,13,16,16,18,18,19,19,20,20,21,21,22,22,23,23,24,24,26,26,31,31,32,32,35,35,37,37,38,38,39,39,40,40,41,41,42,42,43,43,44,44],"right_children":[2,4,6,8,10,12,14,16,18,20,22,24,26,28,-1,-1,30,-1,32,34,36,38,40,42,44,-1,46,-1,-1,-1,-1,48,50,-1,-1,52,-1,54,56,58,60,62,64,66,68,-1,-1,-1,-1,-1,-1,-1,-1,-1,-1,-1,-1,-1,-1,-1,-1,-1,-1,-1,-1,-1,-1,-1,-1],"split_conditions":[1.5E1,7.5E0,2.5E1,3.1E0,1.15E1,2E1,3.18E1,-1.740527E0,-2.3026426E0,9.6E0,1.35E1,1.73E1,2.26E1,2.84E1,1.6723687E-2,-1.2395601E-2,-3E-1,-1.1262803E-2,5.5E0,-1.3201191E0,5.4E-1,6E-2,1E-2,4E-2,6E-2,5.952926E-3,3.611111E-1,9.98437E-3,1.251844E-2,-1.1642443E-2,-8.60482E-3,-9.766603E-1,1.3055556E0,-6.555649E-3,-3.6831822E-3,3.2037845E-1,-6.8437913E-3,1.28E1,5.555556E-1,1.4E1,8.23E1,1.56E1,1.62E1,1.84E1,8.24E1,-0E0,7.986633E-3,-8.413795E-3,-6.5813335E-3,-5.026726E-3,-6.5382347E-3,-2.028459E-3,-3.1659123E-3,-9.768202E-4,-2.4285582E-4,-0E0,-4.159211E-3,2.8938343E-4,7.9379603E-4,-0E0,-1.3355744E-3,1.5178618E-3,2.4752137E-3,-9.1369165E-4,-0E0,3.4029267E-3,4.472212E-3,-0E0,1.0003112E-3],"split_indices":[0,0,0,0,0,0,0,14,14,0,0,0,0,0,0,0,0,0,0,14,6,6,6,6,6,0,2,0,0,0,0,14,2,0,0,13,0,0,2,0,4,0,0,0,4,0,0,0,0,0,0,0,0,0,0,0,0,0,0,0,0,0,0,0,0,0,0,0,0],"split_type":[0,0,0,0,0,0,0,0,0,0,0,0,0,0,0,0,0,0,0,0,0,0,0,0,0,0,0,0,0,0,0,0,0,0,0,0,0,0,0,0,0,0,0,0,0,0,0,0,0,0,0,0,0,0,0,0,0,0,0,0,0,0,0,0,0,0,0,0,0],"sum_hessian":[5.553E3,3.259E3,2.294E3,1.569E3,1.69E3,1.551E3,7.43E2,8.38E2,7.31E2,8.54E2,8.36E2,9.23E2,6.28E2,5.38E2,2.05E2,1.95E2,6.43E2,4.8E1,6.83E2,4.29E2,4.25E2,5.19E2,3.17E2,4.64E2,4.59E2,3.73E2,2.55E2,2.94E2,2.44E2,2.39E2,4.04E2,3.5E2,3.33E2,5.5E1,3.74E2,4.18E2,7E0,5.07E2,1.2E1,3.08E2,9E0,4.49E2,1.5E1,4.46E2,1.3E1,3E0,2.52E2,8.9E1,2.61E2,2.34E2,9.9E1,3.78E2,4E1,3.27E2,1.8E2,5E0,7E0,1.14E2,1.94E2,3E0,6E0,1.23E2,3.26E2,6E0,9E0,1.91E2,2.55E2,5E0,8E0],"tree_param":{"num_deleted":"0","num_feature":"17","num_nodes":"69","size_leaf_vector":"1"}},{"base_weights":[3.4339802E-4,-4.8011586E-2,6.29495E-2,-8.39472E-2,-2.2800446E-2,4.060087E-2,1.1719771E-1,-9.902877E-2,-6.966321E-2,-4.0655427E-2,-9.846909E-3,2.5062017E-2,6.0666602E-2,1.02622844E-1,1.5232652E-1,-1.1409712E-2,-9.443771E-2,-6.5635696E-2,-1.2012488E-2,-3.6280837E-2,-7.313786E-2,-6.4642625E-3,-4.4012576E-2,1.5406143E-2,3.39555E-2,6.684823E-2,3.9992787E-2,1.1028449E-1,8.07157E-2,1.6365251E-1,1.1829322E-1,-1.1077574E-2,-8.681799E-3,-9.671855E-3,-6.250439E-2,-6.4468877E-3,-3.4163058E-2,-6.32847E-2,-1.227552E-2,-1.361314E-2,1.3235334E-3,-4.985013E-2,-2.888971E-3,1.8017208E-2,-7.389687E-3,3.608281E-2,-6.1048074E-3,5.591675E-3,7.738744E-3,6.6612526E-3,4.5948017E-2,9.740166E-3,1.2114326E-2,5.2639466E-2,8.904682E-2,1.5507775E-2,2.2324858E-2,3.8860568E-3,1.2326058E-2,-6.79627E-3,-5.2336766E-3,-4.25066E-3,-2.8898267E-3,-7.6033943E-3,-4.5231977E-3,-1.1334375E-3,-2.558094E-3,3.6638012E-4,-9.866596E-4,-3.9102593E-3,-7.973858E-3,-0E0,-1.1064603E-3,1.968656E-3,7.7966275E-4,-1.7572098E-3,-0E0,3.8696423E-3,2.5093795E-3,-1.2658365E-3,-0E0,1.203074E-3,-0E0,4.7680815E-3,-4.2192536E-4,5.4919976E-3,-0E0,9.55516E-3,4.999667E-3],"categories":[],"categories_nodes":[],"categories_segments":[],"categories_sizes":[],"default_left":[0,0,0,0,0,0,0,0,0,0,0,0,0,0,0,0,0,0,0,0,0,0,0,0,0,0,0,0,0,0,0,0,0,0,0,0,0,0,0,0,0,0,0,0,0,0,0,0,0,0,0,0,0,0,0,0,0,0,0,0,0,0,0,0,0,0,0,0,0,0,0,0,0,0,0,0,0,0,0,0,0,0,0,0,0,0,0,0,0],"id":18,"left_children":[1,3,5,7,9,11,13,15,17,19,21,23,25,27,29,-1,31,33,-1,35,37,39,41,43,45,47,49,51,53,55,57,-1,-1,-1,59,-1,61,63,-1,65,67,69,71,73,75,77,79,-1,-1,81,83,-1,-1,85,87,-1,-1,-1,-1,-1,-1,-1,-1,-1,-1,-1,-1,-1,-1,-1,-1,-1,-1,-1,-1,-1,-1,-1,-1,-1,-1,-1,-1,-1,-1,-1,-1,-1,-1],"loss_changes":[1.701501E1,2.8593602E0,2.9497766E0,2.5736237E-1,4.261276E-1,5.318124E-1,3.2392693E-1,1.1885166E-2,1.1112952E-1,9.7382665E-2,1.2017725E-1,7.9041064E-2,8.312988E-2,5.743122E-2,3.1466007E-2,0E0,3.199768E-2,3.9447784E-2,0E0,2.930361E-2,1.7138422E-2,5.6475595E-2,1.7387882E-2,2.970665E-2,4.633981E-2,4.8702955E-2,3.0162454E-2,1.8245697E-2,1.3656974E-2,3.6888123E-3,1.4884472E-3,0E0,0E0,0E0,1.6546488E-2,0E0,2.0183742E-2,2.3866296E-3,0E0,1.0308944E-2,1.1697995E-2,1.1017308E-2,1.343913E-3,4.502982E-3,4.2811856E-3,6.5221786E-3,1.9897677E-3,0E0,0E0,1.2297557E-3,1.7586768E-2,0E0,0E0,2.7135015E-5,6.8312883E-3,0E0,0E0,0E0,0E0,0E0,0E0,0E0,0E0,0E0,0E0,0E0,0E0,0E0,0E0,0E0,0E0,0E0,0E0,0E0,0E0,0E0,0E0,0E0,0E0,0E0,0E0,0E0,0E0,0E0,0E0,0E0,0E0,0E0,0E0],"parents":[2147483647,0,0,1,1,2,2,3,3,4,4,5,5,6,6,7,7,8,8,9,9,10,10,11,11,12,12,13,13,14,14,16,16,17,17,19,19,20,20,21,21,22,22,23,23,24,24,25,25,26,26,27,27,28,28,29,29,30,30,34,34,36,36,37,37,39,39,40,40,41,41,42,42,43,43,44,44,45,45,46,46,49,49,50,50,53,53,54,54],"right_children":[2,4,6,8,10,12,14,16,18,20,22,24,26,28,30,-1,32,34,-1,36,38,40,42,44,46,48,50,52,54,56,58,-1,-1,-1,60,-1,62,64,-1,66,68,70,72,74,76,78,80,-1,-1,82,84,-1,-1,86,88,-1,-1,-1,-1,-1,-1,-1,-1,-1,-1,-1,-1,-1,-1,-1,-1,-1,-1,-1,-1,-1,-1,-1,-1,-1,-1,-1,-1,-1,-1,-1,-1,-1,-1],"split_conditions":[1.44E1,6E0,2.55E1,1.6E0,9.9E0,1.97E1,3.18E1,-1.3E0,4.388889E0,4.388889E0,5.7222223E0,1.69E1,4.5833335E0,4.0833335E0,4.388889E0,-1.1409712E-2,-1.5452367E0,-2.3026426E0,-1.2012488E-2,-1.6724855E0,8.222222E0,1.22E1,3.5277777E0,5.7222223E0,6.8055553E0,2.21E1,1.3333334E0,2.82E1,1.6111112E0,1.9996E1,1.1666666E0,-1.1077574E-2,-8.681799E-3,-9.671855E-3,4.5E0,-6.4468877E-3,7.5E0,1.6944444E0,-1.227552E-2,3.2222223E0,3.6111112E0,8.194445E0,4.812E1,3.2222223E0,2.8055556E0,3.2222223E0,3.4444444E0,5.591675E-3,7.738744E-3,5.218E1,1.1805555E1,9.740166E-3,1.2114326E-2,6.361111E0,8.194445E0,1.5507775E-2,2.2324858E-2,3.8860568E-3,1.2326058E-2,-6.79627E-3,-5.2336766E-3,-4.25066E-3,-2.8898267E-3,-7.6033943E-3,-4.5231977E-3,-1.1334375E-3,-2.558094E-3,3.6638012E-4,-9.866596E-4,-3.9102593E-3,-7.973858E-3,-0E0,-1.1064603E-3,1.968656E-3,7.7966275E-4,-1.7572098E-3,-0E0,3.8696423E-3,2.5093795E-3,-1.2658365E-3,-0E0,1.203074E-3,-0E0,4.7680815E-3,-4.2192536E-4,5.4919976E-3,-0E0,9.55516E-3,4.999667E-3],"split_indices":[0,0,0,0,0,0,0,0,3,3,3,0,3,3,3,0,14,14,0,14,3,0,2,3,3,0,2,0,2,9,2,0,0,0,0,0,0,2,0,3,3,3,1,3,2,3,2,0,0,1,3,0,0,3,3,0,0,0,0,0,0,0,0,0,0,0,0,0,0,0,0,0,0,0,0,0,0,0,0,0,0,0,0,0,0,0,0,0,0],"split_type":[0,0,0,0,0,0,0,0,0,0,0,0,0,0,0,0,0,0,0,0,0,0,0,0,0,0,0,0,0,0,0,0,0,0,0,0,0,0,0,0,0,0,0,0,0,0,0,0,0,0,0,0,0,0,0,0,0,0,0,0,0,0,0,0,0,0,0,0,0,0,0,0,0,0,0,0,0,0,0,0,0,0,0,0,0,0,0,0,0],"sum_hessian":[5.618E3,3.169E3,2.449E3,1.304E3,1.865E3,1.737E3,7.12E2,6.28E2,6.76E2,7.8E2,1.085E3,9.83E2,7.54E2,5.08E2,2.04E2,1.36E2,4.92E2,6.3E2,4.6E1,6.92E2,8.8E1,9.91E2,9.4E1,4.78E2,5.05E2,5.75E2,1.79E2,3.7E2,1.38E2,1.48E2,5.6E1,1.48E2,3.44E2,5.2E1,5.78E2,4.3E1,6.49E2,7.7E1,1.1E1,5.23E2,4.68E2,8E1,1.4E1,4.33E2,4.5E1,4.82E2,2.3E1,2.9E2,2.85E2,3E1,1.49E2,1.78E2,1.92E2,3.6E1,1.02E2,1.34E2,1.4E1,5E0,5.1E1,3.66E2,2.12E2,2.41E2,4.08E2,4E1,3.7E1,4.48E2,7.5E1,3.95E2,7.3E1,6.3E1,1.7E1,3E0,1.1E1,3.63E2,7E1,2.1E1,2.4E1,3.8E2,1.02E2,1.7E1,6E0,1.7E1,1.3E1,1.46E2,3E0,3.3E1,3E0,8.4E1,1.8E1],"tree_param":{"num_deleted":"0","num_feature":"17","num_nodes":"89","size_leaf_vector":"1"}},{"base_weights":[6.072024E-4,-3.311903E-2,5.8315303E-2,-6.479982E-2,-9.071261E-3,9.662329E-2,3.0102722E-2,-7.7618696E-2,-4.527937E-2,1.862987E-2,-2.7060704E-2,8.087706E-2,1.2340238E-1,4.648717E-2,8.6059235E-3,-9.926878E-3,-7.195579E-2,-2.6515745E-2,-6.39967E-2,6.6007576E-3,3.5387166E-2,-1.5779229E-2,-4.275081E-2,6.827528E-2,9.133512E-2,1.15235224E-1,1.683483E-2,3.4803715E-2,6.1452556E-2,-1.971605E-3,1.9289646E-2,-3.992843E-2,-7.710426E-2,-2.9757868E-3,-3.1226108E-2,-5.6807857E-2,-7.728781E-3,2.1564217E-2,-1.2417942E-3,4.219076E-2,1.8350737E-2,-2.6776109E-2,-5.522308E-5,-5.409813E-2,-2.8239172E-2,9.8388335E-3,6.465816E-3,2.0700486E-3,9.213399E-3,2.759872E-3,1.1605791E-2,4.270833E-3,2.5436154E-2,5.68827E-2,9.124666E-3,5.72441E-3,-1.2552786E-2,2.9783059E-2,8.691449E-3,-0E0,-4.221843E-3,-8.82078E-3,-7.031552E-3,-0E0,-8.92766E-4,-2.3666513E-3,-3.882678E-3,-7.012106E-3,-5.0217514E-3,1.6666019E-4,2.457633E-3,-1.18105E-3,2.7790797E-4,4.6862774E-3,3.2433232E-3,-0E0,1.9220271E-3,-4.078228E-3,-2.1733379E-3,7.5397943E-4,-5.1115354E-4,-4.229557E-3,-6.358354E-3,-2.4798207E-3,-6.360654E-3,8.99966E-4,2.9244905E-3,6.343721E-3,4.7642807E-3,-0E0,1.0229283E-3,-8.487465E-4,-5.919591E-3,3.034911E-3,-0E0,3.1672727E-5,2.4112638E-3],"categories":[],"categories_nodes":[],"categories_segments":[],"categories_sizes":[],"default_left":[0,0,0,0,0,0,0,0,0,0,0,0,0,0,0,0,0,0,0,0,0,0,0,0,0,0,0,0,0,0,0,0,0,0,0,0,0,0,0,0,0,0,0,0,0,0,0,0,0,0,0,0,0,0,0,0,0,0,0,0,0,0,0,0,0,0,0,0,0,0,0,0,0,0,0,0,0,0,0,0,0,0,0,0,0,0,0,0,0,0,0,0,0,0,0,0,0],"id":19,"left_children":[1,3,5,7,9,11,13,15,17,19,21,23,25,27,29,-1,31,33,35,37,39,41,43,45,47,49,-1,51,53,55,57,59,61,63,65,67,-1,69,71,73,75,77,79,81,83,-1,-1,-1,-1,-1,-1,-1,85,87,-1,89,91,93,95,-1,-1,-1,-1,-1,-1,-1,-1,-1,-1,-1,-1,-1,-1,-1,-1,-1,-1,-1,-1,-1,-1,-1,-1,-1,-1,-1,-1,-1,-1,-1,-1,-1,-1,-1,-1,-1,-1],"loss_changes":[1.0882192E1,2.6790783E0,2.2140412E0,3.6454487E-1,1.0019897E0,3.3770943E-1,4.1357648E-1,8.76708E-2,2.0278442E-1,1.5461066E-1,2.0942158E-1,5.0946712E-2,6.934023E-2,1.0590792E-1,6.0420673E-2,0E0,1.05754375E-1,3.0638471E-2,1.0959744E-2,5.651021E-2,3.0957937E-2,1.2094964E-1,7.3560715E-2,5.6535006E-3,3.5119057E-3,2.2580624E-3,0E0,2.0533264E-2,1.9481659E-2,2.1682957E-2,2.5142252E-2,9.245992E-3,2.5132418E-2,1.8154935E-3,7.368654E-3,2.3435354E-3,0E0,7.163897E-3,1.3727088E-2,9.44376E-4,2.125997E-3,2.2314519E-2,1.1278146E-2,1.7957449E-2,1.7329305E-2,0E0,0E0,0E0,0E0,0E0,0E0,0E0,7.431209E-3,1.4343858E-3,0E0,4.5940825E-3,1.4345836E-2,1.5596002E-3,1.5242727E-2,0E0,0E0,0E0,0E0,0E0,0E0,0E0,0E0,0E0,0E0,0E0,0E0,0E0,0E0,0E0,0E0,0E0,0E0,0E0,0E0,0E0,0E0,0E0,0E0,0E0,0E0,0E0,0E0,0E0,0E0,0E0,0E0,0E0,0E0,0E0,0E0,0E0,0E0],"parents":[2147483647,0,0,1,1,2,2,3,3,4,4,5,5,6,6,7,7,8,8,9,9,10,10,11,11,12,12,13,13,14,14,16,16,17,17,18,18,19,19,20,20,21,21,22,22,23,23,24,24,25,25,27,27,28,28,29,29,30,30,31,31,32,32,33,33,34,34,35,35,37,37,38,38,39,39,40,40,41,41,42,42,43,43,44,44,52,52,53,53,55,55,56,56,57,57,58,58],"right_children":[2,4,6,8,10,12,14,16,18,20,22,24,26,28,30,-1,32,34,36,38,40,42,44,46,48,50,-1,52,54,56,58,60,62,64,66,68,-1,70,72,74,76,78,80,82,84,-1,-1,-1,-1,-1,-1,-1,86,88,-1,90,92,94,96,-1,-1,-1,-1,-1,-1,-1,-1,-1,-1,-1,-1,-1,-1,-1,-1,-1,-1,-1,-1,-1,-1,-1,-1,-1,-1,-1,-1,-1,-1,-1,-1,-1,-1,-1,-1,-1,-1],"split_conditions":[8.368E0,6.04E-1,4.39E1,-1.582E0,5.615E1,1.5238E1,7.029E1,0E0,6.618E1,4.988E0,7.87E1,1.2552E1,1.9344E1,1.2552E1,1.1944E1,-9.926878E-3,5.356E1,4.066E1,8.535E1,3.855E1,4.61E1,5.064E0,5.384E0,2.073E1,2.2222222E-1,5.277778E-1,1.683483E-2,5.742E1,1.6194E1,8.747E1,8.449E1,3.325E1,-4.716E0,1.8E1,5.524E1,-9.766603E-1,-7.728781E-3,1.432E0,1.822E0,3.781E1,5.064E0,-5.810192E-1,6.449E1,8.569E1,6E-2,9.8388335E-3,6.465816E-3,2.0700486E-3,9.213399E-3,2.759872E-3,1.1605791E-2,4.270833E-3,9.31E0,5.696E1,9.124666E-3,9.688E0,2.6E-1,3.16E0,1.4378E1,-0E0,-4.221843E-3,-8.82078E-3,-7.031552E-3,-0E0,-8.92766E-4,-2.3666513E-3,-3.882678E-3,-7.012106E-3,-5.0217514E-3,1.6666019E-4,2.457633E-3,-1.18105E-3,2.7790797E-4,4.6862774E-3,3.2433232E-3,-0E0,1.9220271E-3,-4.078228E-3,-2.1733379E-3,7.5397943E-4,-5.1115354E-4,-4.229557E-3,-6.358354E-3,-2.4798207E-3,-6.360654E-3,8.99966E-4,2.9244905E-3,6.343721E-3,4.7642807E-3,-0E0,1.0229283E-3,-8.487465E-4,-5.919591E-3,3.034911E-3,-0E0,3.1672727E-5,2.4112638E-3],"split_indices":[9,9,1,9,1,9,1,13,1,9,1,9,9,9,9,0,1,1,1,1,1,9,9,1,2,2,0,1,9,1,1,1,9,11,1,14,0,9,9,1,9,14,1,1,6,0,0,0,0,0,0,0,9,1,0,9,6,6,9,0,0,0,0,0,0,0,0,0,0,0,0,0,0,0,0,0,0,0,0,0,0,0,0,0,0,0,0,0,0,0,0,0,0,0,0,0,0],"split_type":[0,0,0,0,0,0,0,0,0,0,0,0,0,0,0,0,0,0,0,0,0,0,0,0,0,0,0,0,0,0,0,0,0,0,0,0,0,0,0,0,0,0,0,0,0,0,0,0,0,0,0,0,0,0,0,0,0,0,0,0,0,0,0,0,0,0,0,0,0,0,0,0,0,0,0,0,0,0,0,0,0,0,0,0,0,0,0,0,0,0,0,0,0,0,0,0,0],"sum_hessian":[5.588E3,3.526E3,2.062E3,1.519E3,2.007E3,8.72E2,1.19E3,9.12E2,6.07E2,7.88E2,1.219E3,5.54E2,3.18E2,6.72E2,5.18E2,1.82E2,7.3E2,3.07E2,3E2,4.63E2,3.25E2,7.14E2,5.05E2,2.59E2,2.95E2,2.74E2,4.4E1,3.83E2,2.89E2,2.56E2,2.62E2,1.05E2,6.25E2,5.5E1,2.52E2,2.03E2,9.7E1,1.63E2,3E2,2.27E2,9.8E1,4.16E2,2.98E2,2.78E2,2.27E2,2.2E1,2.37E2,5E0,2.9E2,4E0,2.7E2,2E2,1.83E2,2.56E2,3.3E1,1.43E2,1.13E2,1.26E2,1.36E2,6E0,9.9E1,2.27E2,3.98E2,2.7E1,2.8E1,1.35E2,1.17E2,5.9E1,1.44E2,2.6E1,1.37E2,8.9E1,2.11E2,1.44E2,8.3E1,3E0,9.5E1,1.03E2,3.13E2,1.11E2,1.87E2,1.31E2,1.47E2,2.11E2,1.6E1,4E1,1.43E2,1.4E2,1.16E2,5.5E1,8.8E1,1.07E2,6E0,1.23E2,3E0,9.3E1,4.3E1],"tree_param":{"num_deleted":"0","num_feature":"17","num_nodes":"97","size_leaf_vector":"1"}},{"base_weights":[2.6362282E-4,-4.009115E-2,4.951902E-2,-6.941892E-2,-2.0468747E-2,2.6333796E-2,8.447123E-2,-8.1049755E-2,-5.75512E-2,-3.4976356E-2,-9.401306E-3,1.4516679E-2,3.787728E-2,6.9205545E-2,1.0951817E-1,-9.610032E-3,-7.7456936E-2,-5.3597838E-2,-9.233727E-3,-3.0364793E-2,-5.9830014E-2,-6.381805E-3,-4.2116128E-2,1.835066E-2,-3.181211E-3,4.0881123E-2,5.579426E-3,7.630514E-2,4.9317062E-2,1.2056095E-1,8.220441E-2,-9.186577E-3,-7.080637E-2,-6.8129557E-3,-4.8435114E-2,-6.6826507E-3,-2.8649667E-2,-5.291353E-2,-9.523006E-3,-1.2856025E-2,-0E0,-5.0691077E-3,-2.6687386E-2,1.3068743E-2,2.429223E-3,2.0503893E-3,-1.2010147E-2,3.5079405E-2,4.932363E-2,-3.611433E-3,1.2427278E-2,6.779446E-3,8.702178E-3,5.257853E-2,1.6900955E-3,1.0340571E-2,1.4054728E-2,-0E0,8.479241E-3,-6.7174546E-3,-9.933895E-3,-0E0,-4.8635076E-3,-3.5731436E-3,-2.4685096E-3,-3.7837622E-3,-6.3190833E-3,-1.0446873E-3,-2.3811574E-3,1.3806293E-4,-1.0132024E-3,-3.011734E-3,-0E0,1.3798365E-3,-0E0,-8.785335E-4,9.495066E-4,-0E0,-1.5882917E-3,3.7214074E-3,2.2767137E-3,4.991395E-3,-0E0,-0E0,-1.5204712E-3,1.698808E-3,-0E0,-0E0,5.3273025E-3],"categories":[],"categories_nodes":[],"categories_segments":[],"categories_sizes":[],